{"learner":{"attributes":{"scikit_learn":"{\"_estimator_type\": \"regressor\"}"},"feature_names":["km","ownerNo","Seats","Engine Displacement","Mileage","Max Power","Torque","ft_Cng","ft_Diesel","ft_Electric","ft_Lpg","ft_Petrol","bt_Convertibles","bt_Coupe","bt_Hatchback","bt_Hybrids","bt_MUV","bt_Minivans","bt_Pickup Trucks","bt_SUV","bt_Sedan","bt_Wagon","transmission_Automatic","transmission_Manual","Car_Age"],"feature_types":["float","int","int","float","float","float","float","int","int","int","int","int","int","int","int","int","int","int","int","int","int","int","int","int","float"],"gradient_booster":{"model":{"gbtree_model_param":{"num_parallel_tree":"1","num_trees":"100"},"iteration_indptr":[0,1,2,3,4,5,6,7,8,9,10,11,12,13,14,15,16,17,18,19,20,21,22,23,24,25,26,27,28,29,30,31,32,33,34,35,36,37,38,39,40,41,42,43,44,45,46,47,48,49,50,51,52,53,54,55,56,57,58,59,60,61,62,63,64,65,66,67,68,69,70,71,72,73,74,75,76,77,78,79,80,81,82,83,84,85,86,87,88,89,90,91,92,93,94,95,96,97,98,99,100],"tree_info":[0,0,0,0,0,0,0,0,0,0,0,0,0,0,0,0,0,0,0,0,0,0,0,0,0,0,0,0,0,0,0,0,0,0,0,0,0,0,0,0,0,0,0,0,0,0,0,0,0,0,0,0,0,0,0,0,0,0,0,0,0,0,0,0,0,0,0,0,0,0,0,0,0,0,0,0,0,0,0,0,0,0,0,0,0,0,0,0,0,0,0,0,0,0,0,0,0,0,0,0],"trees":[{"base_weights":[-2.3456575E-2,-1.5731903E5,1.1953414E6,-2.7354122E5,1.1879408E5,1.444495E6,3.0415506E5,-1.8607431E5,-4.306299E5,2.639764E5,-1.5347645E5,1.1133539E6,1.9747165E6,-2.947608E5,4.2341312E5,-3.6192725E5,-1.2563176E5,-3.7378356E5,-5.301942E5,2.1493534E5,8.1300175E5,-2.2255117E5,6.823784E4,8.10917E5,1.3582402E6,2.2847005E6,1.2529018E6,-3.307363E5,2.37915E4,6.034654E5,1.89831E5,-4.3459197E5,-3.3118784E5,-7.9891484E4,-1.9483183E5,-4.6697828E5,-3.3384122E5,-5.722806E5,-4.91085E5,3.471597E5,9.5089445E4,6.1537356E5,4.695162E5,-1.3254958E5,-3.169727E5,3.0361462E5,-7.7484266E4,1.1570884E6,6.2602425E5,1.213826E6,2.0254089E6,2.6391625E6,2.0663302E6,1.3161864E6,4.4288125E5,-3.4704047E5,-3.19085E4,4.7786097E5,7.602348E5,-1.6234583E4,2.8244547E5,-1.117895E5,-1.36927E5,-8.246348E4,-1.1292388E5,-3.1082564E4,1.4629566E4,-6.832385E4,-3.8354953E4,-1.561093E5,-1.3196597E5,-1.0096456E5,8.809151E4,-4.6431375E4,-1.7205081E5,-1.5326747E5,-1.1962187E5,8.110911E4,1.6614823E5,2.0567914E4,9.713853E4,2.1342123E5,1.0912039E5,-2.2642727E4,-5.992485E4,-7.89588E4,-1.180722E5,2.1495533E5,6.093632E4,3.0232678E4,-5.551249E4,2.8697522E5,4.0526172E5,1.6784961E5,3.0538825E5,4.5277516E5,2.9123206E5,6.6295444E5,8.222794E4,2.3709152E5,8.103067E5,3.158701E5,6.4173444E5,3.3772762E5,4.6462262E5,3.4568625E4,1.4560981E5,-6.271093E4,-1.1649191E5,-2.7681377E4,1.4832633E5,2.5871977E5,2.92098E4,-3.5124188E4,4.7689074E4,9.652959E4,2.8432596E4],"categories":[],"categories_nodes":[],"categories_segments":[],"categories_sizes":[],"default_left":[0,0,0,0,0,0,0,0,0,0,0,0,0,0,0,0,0,0,0,0,0,0,0,0,0,0,0,0,0,0,0,0,0,0,0,0,0,0,0,0,0,0,0,0,0,0,0,0,0,0,0,0,0,0,0,0,0,0,0,0,0,0,0,0,0,0,0,0,0,0,0,0,0,0,0,0,0,0,0,0,0,0,0,0,0,0,0,0,0,0,0,0,0,0,0,0,0,0,0,0,0,0,0,0,0,0,0,0,0,0,0,0,0,0,0,0,0],"id":0,"left_children":[1,3,5,7,9,11,13,15,17,19,21,23,25,27,29,31,33,35,37,39,41,43,45,47,49,51,53,55,-1,57,59,61,63,65,67,69,71,73,75,77,79,81,-1,83,85,87,89,91,93,95,97,99,101,103,105,107,-1,109,111,113,115,-1,-1,-1,-1,-1,-1,-1,-1,-1,-1,-1,-1,-1,-1,-1,-1,-1,-1,-1,-1,-1,-1,-1,-1,-1,-1,-1,-1,-1,-1,-1,-1,-1,-1,-1,-1,-1,-1,-1,-1,-1,-1,-1,-1,-1,-1,-1,-1,-1,-1,-1,-1,-1,-1,-1,-1],"loss_changes":[1.0784663E15,1.6266702E14,1.4766285E14,4.8930667E13,5.941288E13,8.927761E13,1.062436E13,2.432682E13,7.018161E12,2.6211548E13,8.024854E12,2.2820805E13,4.1664E13,3.626592E11,5.0584544E12,1.1650015E12,5.3906474E12,2.8778797E12,4.777396E11,1.4244729E13,1.0927051E13,3.3487218E12,4.3109754E12,8.684298E12,1.4595205E13,5.2283174E12,2.595318E12,4.7227863E10,0E0,9.95388E11,1.0542412E12,6.123474E10,9.5591544E11,3.147952E12,1.4678533E12,1.2111053E11,1.07393476E12,2.1441282E10,2.4623081E11,6.643161E12,2.853796E12,1.3119636E12,0E0,7.7500724E11,6.955708E11,1.8461774E12,1.5141542E12,6.50503E11,1.9856842E12,9.161803E12,9.084619E12,3.4694947E12,4.3863025E12,7.8073614E11,2.7593277E10,3.842166E10,0E0,4.3272005E11,1.8799573E12,3.3663625E11,2.4991315E11,0E0,0E0,0E0,0E0,0E0,0E0,0E0,0E0,0E0,0E0,0E0,0E0,0E0,0E0,0E0,0E0,0E0,0E0,0E0,0E0,0E0,0E0,0E0,0E0,0E0,0E0,0E0,0E0,0E0,0E0,0E0,0E0,0E0,0E0,0E0,0E0,0E0,0E0,0E0,0E0,0E0,0E0,0E0,0E0,0E0,0E0,0E0,0E0,0E0,0E0,0E0,0E0,0E0,0E0,0E0,0E0],"parents":[2147483647,0,0,1,1,2,2,3,3,4,4,5,5,6,6,7,7,8,8,9,9,10,10,11,11,12,12,13,13,14,14,15,15,16,16,17,17,18,18,19,19,20,20,21,21,22,22,23,23,24,24,25,25,26,26,27,27,29,29,30,30,31,31,32,32,33,33,34,34,35,35,36,36,37,37,38,38,39,39,40,40,41,41,43,43,44,44,45,45,46,46,47,47,48,48,49,49,50,50,51,51,52,52,53,53,54,54,55,55,57,57,58,58,59,59,60,60],"right_children":[2,4,6,8,10,12,14,16,18,20,22,24,26,28,30,32,34,36,38,40,42,44,46,48,50,52,54,56,-1,58,60,62,64,66,68,70,72,74,76,78,80,82,-1,84,86,88,90,92,94,96,98,100,102,104,106,108,-1,110,112,114,116,-1,-1,-1,-1,-1,-1,-1,-1,-1,-1,-1,-1,-1,-1,-1,-1,-1,-1,-1,-1,-1,-1,-1,-1,-1,-1,-1,-1,-1,-1,-1,-1,-1,-1,-1,-1,-1,-1,-1,-1,-1,-1,-1,-1,-1,-1,-1,-1,-1,-1,-1,-1,-1,-1,-1,-1],"split_conditions":[1.41E2,9.863E1,1E1,9E0,8E0,1.73E2,1E0,7E1,1.2E1,1.2632E2,1.95E3,1E0,8E0,3.82E2,1.2E1,7.8E1,7E0,7.39E1,7.39E1,5E0,1.701E1,1E1,1E1,4E0,3.735E2,3.3222E4,1.999E3,2.393E3,2.37915E4,1.77E2,3.3E2,5E0,6E0,1E0,8.85E1,6.2E1,1.591E3,1.0711E4,2.119E1,1.775E2,1.262E2,6E0,4.695162E5,9E0,1.2E1,6E0,1E0,1.6077E2,2.184E3,4E0,1E0,1.7433E2,1.968E3,1.85E2,1E0,2E0,-3.19085E4,1.798E3,6E0,1.78E2,1.08818E5,-1.117895E5,-1.36927E5,-8.246348E4,-1.1292388E5,-3.1082564E4,1.4629566E4,-6.832385E4,-3.8354953E4,-1.561093E5,-1.3196597E5,-1.0096456E5,8.809151E4,-4.6431375E4,-1.7205081E5,-1.5326747E5,-1.1962187E5,8.110911E4,1.6614823E5,2.0567914E4,9.713853E4,2.1342123E5,1.0912039E5,-2.2642727E4,-5.992485E4,-7.89588E4,-1.180722E5,2.1495533E5,6.093632E4,3.0232678E4,-5.551249E4,2.8697522E5,4.0526172E5,1.6784961E5,3.0538825E5,4.5277516E5,2.9123206E5,6.6295444E5,8.222794E4,2.3709152E5,8.103067E5,3.158701E5,6.4173444E5,3.3772762E5,4.6462262E5,3.4568625E4,1.4560981E5,-6.271093E4,-1.1649191E5,-2.7681377E4,1.4832633E5,2.5871977E5,2.92098E4,-3.5124188E4,4.7689074E4,9.652959E4,2.8432596E4],"split_indices":[5,5,24,24,24,5,22,5,24,5,3,22,24,6,24,6,24,5,5,24,4,24,24,24,6,0,3,3,0,5,6,24,24,19,5,5,3,0,4,6,5,24,0,24,24,2,19,5,3,24,16,5,3,5,19,1,0,3,2,5,0,0,0,0,0,0,0,0,0,0,0,0,0,0,0,0,0,0,0,0,0,0,0,0,0,0,0,0,0,0,0,0,0,0,0,0,0,0,0,0,0,0,0,0,0,0,0,0,0,0,0,0,0,0,0,0,0],"split_type":[0,0,0,0,0,0,0,0,0,0,0,0,0,0,0,0,0,0,0,0,0,0,0,0,0,0,0,0,0,0,0,0,0,0,0,0,0,0,0,0,0,0,0,0,0,0,0,0,0,0,0,0,0,0,0,0,0,0,0,0,0,0,0,0,0,0,0,0,0,0,0,0,0,0,0,0,0,0,0,0,0,0,0,0,0,0,0,0,0,0,0,0,0,0,0,0,0,0,0,0,0,0,0,0,0,0,0,0,0,0,0,0,0,0,0,0,0],"sum_hessian":[5.733E3,5.067E3,6.66E2,3.566E3,1.501E3,5.2E2,1.46E2,2.292E3,1.274E3,9.79E2,5.22E2,3.22E2,1.98E2,2.4E1,1.22E2,5.85E2,1.707E3,8.14E2,4.6E2,9E2,7.9E1,3.98E2,1.24E2,1.46E2,1.76E2,1.37E2,6.1E1,2.2E1,2E0,6.8E1,5.4E1,1.7E2,4.15E2,1.029E3,6.78E2,2.41E2,5.73E2,2.15E2,2.45E2,4.27E2,4.73E2,6.4E1,1.5E1,2.05E2,1.93E2,4.7E1,7.7E1,4.9E1,9.7E1,1.47E2,2.9E1,4.8E1,8.9E1,5.6E1,5E0,2E1,2E0,4E1,2.8E1,1.7E1,3.7E1,4.9E1,1.21E2,1.88E2,2.27E2,8.69E2,1.6E2,4.53E2,2.25E2,7.5E1,1.66E2,5.71E2,2E0,1E0,2.14E2,1.98E2,4.7E1,3.13E2,1.14E2,4.25E2,4.8E1,4.5E1,1.9E1,1.12E2,9.3E1,1.16E2,7.7E1,8E0,3.9E1,2.9E1,4.8E1,2.7E1,2.2E1,8.5E1,1.2E1,6.4E1,8.3E1,2.6E1,3E0,2E0,4.6E1,7E0,8.2E1,3.4E1,2.2E1,1E0,4E0,6E0,1.4E1,1E0,3.9E1,2.4E1,4E0,1.1E1,6E0,3E1,7E0],"tree_param":{"num_deleted":"0","num_feature":"25","num_nodes":"117","size_leaf_vector":"1"}},{"base_weights":[1.0061679E3,-1.10169E5,8.457359E5,-1.8871788E5,9.374627E4,1.0534755E6,3.0686694E5,-1.2724501E5,-3.0205216E5,2.3063298E5,-6.757827E4,7.984966E5,1.5194809E6,4.6602238E5,4.0274684E4,-2.5410692E5,-8.561934E4,-2.4771652E5,-3.5450778E5,1.5376523E5,3.8963753E5,-1.4281647E4,-2.1976934E5,5.7557025E5,9.899439E5,1.845927E6,1.3130736E6,-1.9219184E5,5.0333297E5,-2.6979512E5,1.3538217E5,-1.7934612E5,-2.6875284E5,1.6901834E4,-1.0787863E5,-3.0565272E5,-2.1126305E5,-3.1593706E5,-3.9527312E5,3.213311E5,1.23642445E5,8.205408E4,5.0072794E5,-7.250515E4,2.0827494E5,-2.4113742E5,5.3552934E4,7.190344E5,3.2960112E5,8.686151E5,1.4746552E6,2.442747E5,1.920826E6,4.017025E5,1.3538104E6,-6.492557E4,-7.024735E3,6.642519E5,3.654414E5,-8.454156E4,-1.1645101E4,1.8948959E3,2.1160648E5,-7.117309E4,-4.6642555E4,-9.481377E4,-7.411018E4,-5.626959E2,7.783737E4,-3.8427312E4,-3.863226E3,-1.0857166E5,-8.5443086E4,-6.4298875E4,4.2161664E4,-1.0007431E5,-7.440187E4,-1.1914693E5,-2.0484125E4,1.3132019E5,6.1682453E4,1.7089703E4,4.9430074E4,6.2761414E4,1.3355958E4,1.0808852E5,2.0027811E5,-7.042829E3,-4.396182E4,4.1023582E4,2.1642912E5,-7.87067E4,-1.9166674E4,3.0156506E4,-4.095504E4,2.2978128E5,7.735036E4,8.120313E4,1.9479319E5,3.110054E5,1.7315455E5,3.3931247E5,5.3660444E5,1.8347381E5,5.869991E5,1.4294911E5,4.1594814E3,4.2186294E5,2.1933477E5,2.1625311E5,1.09740016E5,-1.335921E4,1.2065553E5,7.313184E4,-1.5588308E4,8.12427E4,2.7175836E4],"categories":[],"categories_nodes":[],"categories_segments":[],"categories_sizes":[],"default_left":[0,0,0,0,0,0,0,0,0,0,0,0,0,0,0,0,0,0,0,0,0,0,0,0,0,0,0,0,0,0,0,0,0,0,0,0,0,0,0,0,0,0,0,0,0,0,0,0,0,0,0,0,0,0,0,0,0,0,0,0,0,0,0,0,0,0,0,0,0,0,0,0,0,0,0,0,0,0,0,0,0,0,0,0,0,0,0,0,0,0,0,0,0,0,0,0,0,0,0,0,0,0,0,0,0,0,0,0,0,0,0,0,0,0,0,0,0],"id":1,"left_children":[1,3,5,7,9,11,13,15,17,19,21,23,25,27,29,31,33,35,37,39,41,43,45,47,49,51,53,55,57,59,61,63,65,67,69,71,73,75,77,79,81,83,85,87,89,91,93,95,97,99,101,-1,103,105,107,-1,-1,109,111,-1,-1,113,115,-1,-1,-1,-1,-1,-1,-1,-1,-1,-1,-1,-1,-1,-1,-1,-1,-1,-1,-1,-1,-1,-1,-1,-1,-1,-1,-1,-1,-1,-1,-1,-1,-1,-1,-1,-1,-1,-1,-1,-1,-1,-1,-1,-1,-1,-1,-1,-1,-1,-1,-1,-1,-1,-1],"loss_changes":[5.3859014E14,8.1193454E13,7.434367E13,2.5453763E13,3.1152874E13,5.593987E13,7.915564E12,1.2514654E13,3.5775484E12,9.265725E12,5.252964E12,1.2788651E13,8.96353E12,2.9700664E12,2.1303128E12,5.934311E11,4.084408E12,1.2765322E12,9.002906E11,2.5648054E12,8.432963E12,6.24791E12,9.940967E11,4.950302E12,8.540257E12,3.3040881E12,3.4286925E12,2.3554654E10,2.2202758E12,3.6220174E10,5.592225E11,9.993952E10,4.231759E11,1.4579566E12,2.821048E12,1.8183147E11,4.5409318E11,3.2478593E11,1.6563726E11,9.606959E11,1.1943726E12,3.1044364E11,4.024355E12,1.3831543E12,3.5719314E12,5.699388E11,1.2977828E11,1.792633E12,8.7920633E11,6.063076E12,1.4298466E12,0E0,1.5247302E12,1.6744219E11,2.300039E12,0E0,0E0,5.8081044E11,9.518711E11,0E0,0E0,2.8622442E11,2.2623329E11,0E0,0E0,0E0,0E0,0E0,0E0,0E0,0E0,0E0,0E0,0E0,0E0,0E0,0E0,0E0,0E0,0E0,0E0,0E0,0E0,0E0,0E0,0E0,0E0,0E0,0E0,0E0,0E0,0E0,0E0,0E0,0E0,0E0,0E0,0E0,0E0,0E0,0E0,0E0,0E0,0E0,0E0,0E0,0E0,0E0,0E0,0E0,0E0,0E0,0E0,0E0,0E0,0E0,0E0],"parents":[2147483647,0,0,1,1,2,2,3,3,4,4,5,5,6,6,7,7,8,8,9,9,10,10,11,11,12,12,13,13,14,14,15,15,16,16,17,17,18,18,19,19,20,20,21,21,22,22,23,23,24,24,25,25,26,26,27,27,28,28,29,29,30,30,31,31,32,32,33,33,34,34,35,35,36,36,37,37,38,38,39,39,40,40,41,41,42,42,43,43,44,44,45,45,46,46,47,47,48,48,49,49,50,50,52,52,53,53,54,54,57,57,58,58,61,61,62,62],"right_children":[2,4,6,8,10,12,14,16,18,20,22,24,26,28,30,32,34,36,38,40,42,44,46,48,50,52,54,56,58,60,62,64,66,68,70,72,74,76,78,80,82,84,86,88,90,92,94,96,98,100,102,-1,104,106,108,-1,-1,110,112,-1,-1,114,116,-1,-1,-1,-1,-1,-1,-1,-1,-1,-1,-1,-1,-1,-1,-1,-1,-1,-1,-1,-1,-1,-1,-1,-1,-1,-1,-1,-1,-1,-1,-1,-1,-1,-1,-1,-1,-1,-1,-1,-1,-1,-1,-1,-1,-1,-1,-1,-1,-1,-1,-1,-1,-1,-1],"split_conditions":[1.41E2,1E2,9E0,9E0,7E0,1.73E2,1.2E1,7E1,1.1E1,1.775E2,1.1E1,1E0,6E0,1.95E2,1E0,4E0,4E0,1.13E2,1.3E1,3E0,1.104E2,1.794E3,2.184E3,6E0,1.79E1,1.7433E2,2.53E2,8.0153E4,6.5192E4,2.393E3,3.6E2,8.14E2,6.2E1,1.248E3,1.91E2,6.41E1,1.591E3,1.804E2,2.04E2,1.1344E4,1.104E2,1.695E1,1E0,9E0,1.7E1,1.4E2,1.22117E5,3.6E2,2.184E3,5E0,1.969E3,2.442747E5,1.799E3,7.9151E4,2.254E1,-6.492557E4,-7.024735E3,1.1E1,1E0,-8.454156E4,-1.1645101E4,1.157E1,1.996E3,-7.117309E4,-4.6642555E4,-9.481377E4,-7.411018E4,-5.626959E2,7.783737E4,-3.8427312E4,-3.863226E3,-1.0857166E5,-8.5443086E4,-6.4298875E4,4.2161664E4,-1.0007431E5,-7.440187E4,-1.1914693E5,-2.0484125E4,1.3132019E5,6.1682453E4,1.7089703E4,4.9430074E4,6.2761414E4,1.3355958E4,1.0808852E5,2.0027811E5,-7.042829E3,-4.396182E4,4.1023582E4,2.1642912E5,-7.87067E4,-1.9166674E4,3.0156506E4,-4.095504E4,2.2978128E5,7.735036E4,8.120313E4,1.9479319E5,3.110054E5,1.7315455E5,3.3931247E5,5.3660444E5,1.8347381E5,5.869991E5,1.4294911E5,4.1594814E3,4.2186294E5,2.1933477E5,2.1625311E5,1.09740016E5,-1.335921E4,1.2065553E5,7.313184E4,-1.5588308E4,8.12427E4,2.7175836E4],"split_indices":[5,5,24,24,24,5,24,5,24,6,24,22,24,6,22,24,24,6,24,24,5,3,3,24,4,5,6,0,0,3,6,3,5,3,6,5,3,6,6,0,5,4,22,24,4,5,0,6,3,24,3,0,3,0,4,0,0,24,22,0,0,4,3,0,0,0,0,0,0,0,0,0,0,0,0,0,0,0,0,0,0,0,0,0,0,0,0,0,0,0,0,0,0,0,0,0,0,0,0,0,0,0,0,0,0,0,0,0,0,0,0,0,0,0,0,0,0],"split_type":[0,0,0,0,0,0,0,0,0,0,0,0,0,0,0,0,0,0,0,0,0,0,0,0,0,0,0,0,0,0,0,0,0,0,0,0,0,0,0,0,0,0,0,0,0,0,0,0,0,0,0,0,0,0,0,0,0,0,0,0,0,0,0,0,0,0,0,0,0,0,0,0,0,0,0,0,0,0,0,0,0,0,0,0,0,0,0,0,0,0,0,0,0,0,0,0,0,0,0,0,0,0,0,0,0,0,0,0,0,0,0,0,0,0,0,0,0],"sum_hessian":[5.733E3,5.067E3,6.66E2,3.658E3,1.409E3,4.8E2,1.86E2,2.373E3,1.285E3,7.62E2,6.47E2,3.12E2,1.68E2,1.16E2,7E1,5.85E2,1.788E3,6.34E2,6.51E2,5.15E2,2.47E2,4.8E2,1.67E2,1.46E2,1.66E2,6.2E1,1.06E2,6E0,1.1E2,1.6E1,5.4E1,9.8E1,4.87E2,3.19E2,1.469E3,2.42E2,3.92E2,3.39E2,3.12E2,7.7E1,4.38E2,6.6E1,1.81E2,3.81E2,9.9E1,1.55E2,1.2E1,9.1E1,5.5E1,1.35E2,3.1E1,5E0,5.7E1,5E0,1.01E2,5E0,1E0,4.9E1,6.1E1,1.5E1,1E0,2E1,3.4E1,2.6E1,7.2E1,1.49E2,3.38E2,2.97E2,2.2E1,1.211E3,2.58E2,6.1E1,1.81E2,3.89E2,3E0,2.66E2,7.3E1,3.1E2,2E0,3.7E1,4E1,1.68E2,2.7E2,1.4E1,5.2E1,1E2,8.1E1,2.3E2,1.51E2,8.8E1,1.1E1,1.38E2,1.7E1,1E1,2E0,8.2E1,9E0,4.8E1,7E0,8.4E1,5.1E1,1.7E1,1.4E1,2E0,5.5E1,4E0,1E0,9.2E1,9E0,4E1,9E0,5E0,5.6E1,3E0,1.7E1,2.2E1,1.2E1],"tree_param":{"num_deleted":"0","num_feature":"25","num_nodes":"117","size_leaf_vector":"1"}},{"base_weights":[1.4258297E3,-7.7126234E4,5.9827806E5,-1.3231623E5,6.614848E4,7.2425E5,1.4773616E5,-7.373451E4,-1.9766556E5,1.4509508E5,-7.474673E4,6.185503E5,1.1685604E6,-1.5448775E5,2.0796267E5,-1.6847839E5,-4.322606E4,-2.3904838E5,-1.5429052E5,1.1594274E5,4.4391478E5,-4.4146223E4,-1.9009255E5,5.6649444E5,1.3062575E6,1.3063182E6,7.085441E5,-1.7735844E5,2.170504E4,2.5909398E5,1.6566408E4,-1.7134211E5,1.3211703E5,-7.011754E4,-2.3284546E3,-2.5122847E5,-1.690922E5,-1.9014864E5,-1.168585E5,2.3296586E5,5.764514E4,3.1692294E5,2.7962238E5,-8.539293E4,8.821717E4,-2.024459E5,-1.3458133E4,6.699585E5,4.2270697E5,1.4781592E5,1.3865932E6,1.3704092E6,4.8794747E5,8.606662E5,3.9429444E5,-1.0406274E5,-1.9710617E5,3.261286E5,1.3644844E5,-9.491172E4,9.91396E4,-2.7894717E4,-5.3787598E4,1.0804679E4,4.4141547E4,-2.6083797E4,-2.634103E3,3.0149896E4,-4.441798E3,-6.332237E4,-8.091317E4,-5.9638164E4,-3.8744074E4,-6.2717492E4,-4.4003047E4,-2.9819545E4,-5.9332277E4,4.8659445E4,1.1135996E5,3.3026598E4,4.1601323E3,1.4511773E5,7.43308E4,-3.4254074E4,-3.3855078E3,8.42211E3,1.0981682E5,-4.8442477E4,-7.499693E4,2.8515371E4,-2.9272201E4,1.493127E5,2.3547977E5,5.4792277E4,1.4744256E5,6.1008582E4,5.5085815E3,4.6093906E5,2.2166936E5,4.421291E5,2.4354723E5,3.6472727E4,1.5862405E5,9.657691E4,2.880685E5,1.5149175E5,-9.683588E3,-4.11096E4,-4.327919E3,-9.898332E3,-6.15903E4,4.0534113E4,1.12214586E5,-4.1766E4,4.7027684E4,-6.057105E4,2.857724E4,3.982769E4,-6.0772645E4],"categories":[],"categories_nodes":[],"categories_segments":[],"categories_sizes":[],"default_left":[0,0,0,0,0,0,0,0,0,0,0,0,0,0,0,0,0,0,0,0,0,0,0,0,0,0,0,0,0,0,0,0,0,0,0,0,0,0,0,0,0,0,0,0,0,0,0,0,0,0,0,0,0,0,0,0,0,0,0,0,0,0,0,0,0,0,0,0,0,0,0,0,0,0,0,0,0,0,0,0,0,0,0,0,0,0,0,0,0,0,0,0,0,0,0,0,0,0,0,0,0,0,0,0,0,0,0,0,0,0,0,0,0,0,0,0,0,0,0],"id":2,"left_children":[1,3,5,7,9,11,13,15,17,19,21,23,25,27,29,31,33,35,37,39,41,43,45,47,49,51,53,55,-1,57,59,61,63,65,67,69,71,73,75,77,79,81,-1,83,85,87,89,91,93,95,97,99,101,103,105,107,109,111,113,115,117,-1,-1,-1,-1,-1,-1,-1,-1,-1,-1,-1,-1,-1,-1,-1,-1,-1,-1,-1,-1,-1,-1,-1,-1,-1,-1,-1,-1,-1,-1,-1,-1,-1,-1,-1,-1,-1,-1,-1,-1,-1,-1,-1,-1,-1,-1,-1,-1,-1,-1,-1,-1,-1,-1,-1,-1,-1,-1],"loss_changes":[2.6887884E14,4.008311E13,3.774904E13,1.3993087E13,1.5694553E13,2.374513E13,2.7078062E12,5.574251E12,3.066636E12,7.8235367E12,1.7811361E12,1.4403072E13,5.348132E12,1.4253031E11,1.1994278E12,4.2722447E11,1.6077399E12,7.099027E11,1.1146594E12,5.614859E12,4.6639885E12,2.202274E12,2.2857043E11,5.5931463E12,2.4939038E12,3.265081E12,8.557523E11,1.2779389E10,0E0,7.529861E11,2.5794734E11,2.7362381E11,1.9186401E9,9.096457E11,7.4693516E11,4.9966324E11,1.333094E11,3.2363355E11,5.6947533E11,2.6201985E12,1.2657956E12,6.2992364E11,0E0,6.5365475E11,1.5939024E12,1.5247658E11,8.229341E10,4.1247037E12,2.683738E12,1.7837847E10,1.4856099E12,2.7870815E12,4.035117E10,5.490952E11,4.8842264E11,1.8709832E10,1.6088957E10,5.1697366E11,2.2338666E11,2.6339125E11,1.8918924E11,0E0,0E0,0E0,0E0,0E0,0E0,0E0,0E0,0E0,0E0,0E0,0E0,0E0,0E0,0E0,0E0,0E0,0E0,0E0,0E0,0E0,0E0,0E0,0E0,0E0,0E0,0E0,0E0,0E0,0E0,0E0,0E0,0E0,0E0,0E0,0E0,0E0,0E0,0E0,0E0,0E0,0E0,0E0,0E0,0E0,0E0,0E0,0E0,0E0,0E0,0E0,0E0,0E0,0E0,0E0,0E0,0E0,0E0],"parents":[2147483647,0,0,1,1,2,2,3,3,4,4,5,5,6,6,7,7,8,8,9,9,10,10,11,11,12,12,13,13,14,14,15,15,16,16,17,17,18,18,19,19,20,20,21,21,22,22,23,23,24,24,25,25,26,26,27,27,29,29,30,30,31,31,32,32,33,33,34,34,35,35,36,36,37,37,38,38,39,39,40,40,41,41,43,43,44,44,45,45,46,46,47,47,48,48,49,49,50,50,51,51,52,52,53,53,54,54,55,55,56,56,57,57,58,58,59,59,60,60],"right_children":[2,4,6,8,10,12,14,16,18,20,22,24,26,28,30,32,34,36,38,40,42,44,46,48,50,52,54,56,-1,58,60,62,64,66,68,70,72,74,76,78,80,82,-1,84,86,88,90,92,94,96,98,100,102,104,106,108,110,112,114,116,118,-1,-1,-1,-1,-1,-1,-1,-1,-1,-1,-1,-1,-1,-1,-1,-1,-1,-1,-1,-1,-1,-1,-1,-1,-1,-1,-1,-1,-1,-1,-1,-1,-1,-1,-1,-1,-1,-1,-1,-1,-1,-1,-1,-1,-1,-1,-1,-1,-1,-1,-1,-1,-1,-1,-1,-1,-1,-1],"split_conditions":[1.41E2,1E2,1E1,8E0,8E0,1.8774E2,1E0,7E1,8.046E1,1.2632E2,1.2E1,4.2E2,6.2411E4,3.82E2,1.3E1,1.7E2,8.58E1,1.81E2,1.147E2,4E0,1.701E1,1.799E3,2.184E3,4.8457E4,1.235E1,2.254E1,2E0,2E0,2.170504E4,8.5031E4,1.78E2,3E0,4.1261E4,1E0,3E0,1E1,2.404E1,8.72E1,1.1E1,1E0,6E0,3.2228E4,2.7962238E5,1E0,1E0,1.3E1,1.006E2,1.577E2,2.598E2,6.2411E4,8.0153E4,8E0,6E0,6.6951E4,9.2278E4,1.11275E5,1.157E1,1.73E2,1.799E3,9.0347E4,4.24E2,-2.7894717E4,-5.3787598E4,1.0804679E4,4.4141547E4,-2.6083797E4,-2.634103E3,3.0149896E4,-4.441798E3,-6.332237E4,-8.091317E4,-5.9638164E4,-3.8744074E4,-6.2717492E4,-4.4003047E4,-2.9819545E4,-5.9332277E4,4.8659445E4,1.1135996E5,3.3026598E4,4.1601323E3,1.4511773E5,7.43308E4,-3.4254074E4,-3.3855078E3,8.42211E3,1.0981682E5,-4.8442477E4,-7.499693E4,2.8515371E4,-2.9272201E4,1.493127E5,2.3547977E5,5.4792277E4,1.4744256E5,6.1008582E4,5.5085815E3,4.6093906E5,2.2166936E5,4.421291E5,2.4354723E5,3.6472727E4,1.5862405E5,9.657691E4,2.880685E5,1.5149175E5,-9.683588E3,-4.11096E4,-4.327919E3,-9.898332E3,-6.15903E4,4.0534113E4,1.12214586E5,-4.1766E4,4.7027684E4,-6.057105E4,2.857724E4,3.982769E4,-6.0772645E4],"split_indices":[5,5,24,24,24,5,22,5,5,5,24,6,0,6,24,6,5,6,6,24,4,3,3,0,4,4,1,1,0,0,5,24,0,22,24,24,4,5,24,22,24,0,0,22,22,24,5,5,6,0,0,24,24,0,0,0,4,5,3,0,6,0,0,0,0,0,0,0,0,0,0,0,0,0,0,0,0,0,0,0,0,0,0,0,0,0,0,0,0,0,0,0,0,0,0,0,0,0,0,0,0,0,0,0,0,0,0,0,0,0,0,0,0,0,0,0,0,0,0],"split_type":[0,0,0,0,0,0,0,0,0,0,0,0,0,0,0,0,0,0,0,0,0,0,0,0,0,0,0,0,0,0,0,0,0,0,0,0,0,0,0,0,0,0,0,0,0,0,0,0,0,0,0,0,0,0,0,0,0,0,0,0,0,0,0,0,0,0,0,0,0,0,0,0,0,0,0,0,0,0,0,0,0,0,0,0,0,0,0,0,0,0,0,0,0,0,0,0,0,0,0,0,0,0,0,0,0,0,0,0,0,0,0,0,0,0,0,0,0,0,0],"sum_hessian":[5.733E3,5.067E3,6.66E2,3.658E3,1.409E3,5.2E2,1.46E2,1.93E3,1.728E3,9.03E2,5.06E2,4.22E2,9.8E1,2.4E1,1.22E2,4.69E2,1.461E3,8.82E2,8.46E2,8.24E2,7.9E1,4.01E2,1.05E2,3.94E2,2.8E1,7.4E1,2.4E1,2.2E1,2E0,9.6E1,2.6E1,4.65E2,4E0,8.81E2,5.8E2,7.49E2,1.33E2,4.3E2,4.16E2,2.73E2,5.51E2,6.4E1,1.5E1,3.06E2,9.5E1,9.8E1,7E0,2.27E2,1.67E2,2E0,2.6E1,6.8E1,6E0,1.5E1,9E0,6E0,1.6E1,6.1E1,3.5E1,1.1E1,1.5E1,4.4E1,4.21E2,1E0,3E0,6.91E2,1.9E2,6.2E1,5.18E2,2.4E2,5.09E2,7.4E1,5.9E1,2.97E2,1.33E2,3.44E2,7.2E1,1.82E2,9.1E1,2.5E2,3.01E2,1.7E1,4.7E1,2.2E2,8.6E1,7.9E1,1.6E1,5.5E1,4.3E1,3E0,4E0,9.3E1,1.34E2,3.8E1,1.29E2,1E0,1E0,2E1,6E0,5.6E1,1.2E1,1E0,5E0,3E0,1.2E1,7E0,2E0,4E0,2E0,1E0,1.5E1,1.3E1,4.8E1,2E0,3.3E1,7E0,4E0,1.4E1,1E0],"tree_param":{"num_deleted":"0","num_feature":"25","num_nodes":"119","size_leaf_vector":"1"}},{"base_weights":[1.5104142E3,-5.395196E4,4.2292244E5,-9.210215E4,4.8579477E4,5.297685E5,1.4583211E5,-5.1747055E4,-1.370964E5,1.05723234E5,-5.484491E4,3.956204E5,7.7508556E5,2.2656498E5,1.0739458E4,-1.22461625E5,-3.1886996E4,-1.6760861E5,-1.0575452E5,5.939503E4,2.0844008E5,-8.99735E2,-1.0335026E5,3.3888788E5,8.096555E5,1.2669185E6,7.224883E5,2.323601E5,2.0535061E5,-1.4440695E5,5.8498543E4,-1.2484271E5,1.0347115E5,-4.497967E3,-5.9814934E4,-1.5246328E5,-2.0292461E5,-1.121379E5,5.337295E4,1.7690952E5,4.4623695E4,2.6303584E5,-1.472539E4,-3.446033E4,1.9654198E5,-1.1133678E5,1.9892877E5,6.9396356E5,2.4577383E5,1.938482E5,8.998176E5,4.014356E5,1.608235E5,8.254623E5,5.890336E5,1.4842853E5,3.9230116E5,-4.4978023E4,-8.413585E3,8.707382E4,-4.0519566E4,-2.8486174E4,-4.269147E4,9.183976E3,3.4209695E4,-8.822295E3,1.6343465E4,-2.66259E4,-8.862612E3,-5.7571742E4,-4.202133E4,-6.4414188E4,-4.8928914E4,-3.4130105E4,1.860036E5,2.111401E4,-4.3748086E4,1.1150968E5,3.9839266E4,5.671747E3,2.8127363E4,1.1909273E4,9.145453E4,3.575866E4,-8.269848E3,4.245447E4,-1.3933659E4,1.5769461E5,3.650209E4,-3.7054105E4,-7.1282324E3,4.1537515E3,1.3232722E5,2.4928527E5,9.682828E4,1.2418236E5,4.005042E4,1.00147625E5,-7.5905664E4,2.4811426E4,2.854605E5,1.4698225E5,2.606149E5,1.9860152E5,8.174207E4,3.5251938E4,1.6697986E5,1.4552727E5,6.460907E2,6.763967E4,2.0129588E4,-2.8872979E4,3.2675865E4],"categories":[],"categories_nodes":[],"categories_segments":[],"categories_sizes":[],"default_left":[0,0,0,0,0,0,0,0,0,0,0,0,0,0,0,0,0,0,0,0,0,0,0,0,0,0,0,0,0,0,0,0,0,0,0,0,0,0,0,0,0,0,0,0,0,0,0,0,0,0,0,0,0,0,0,0,0,0,0,0,0,0,0,0,0,0,0,0,0,0,0,0,0,0,0,0,0,0,0,0,0,0,0,0,0,0,0,0,0,0,0,0,0,0,0,0,0,0,0,0,0,0,0,0,0,0,0,0,0,0,0,0,0],"id":3,"left_children":[1,3,5,7,9,11,13,15,17,19,21,23,25,27,29,31,33,35,37,39,41,43,45,47,49,51,53,-1,55,57,59,61,63,65,67,69,71,73,75,77,79,81,83,85,87,89,91,93,95,97,99,-1,-1,101,103,105,107,-1,-1,109,111,-1,-1,-1,-1,-1,-1,-1,-1,-1,-1,-1,-1,-1,-1,-1,-1,-1,-1,-1,-1,-1,-1,-1,-1,-1,-1,-1,-1,-1,-1,-1,-1,-1,-1,-1,-1,-1,-1,-1,-1,-1,-1,-1,-1,-1,-1,-1,-1,-1,-1,-1,-1],"loss_changes":[1.340408E14,1.982843E13,1.9669952E13,6.700279E12,8.1321274E12,1.5522498E13,2.0370673E12,2.7332612E12,1.6519937E12,4.2038156E12,1.2820557E12,7.077758E12,3.4565427E12,1.201052E12,5.345328E11,2.4263E11,1.1647029E12,4.4135193E11,8.836098E11,1.0544436E12,3.3544429E12,1.5506919E12,6.450006E11,8.987762E12,1.8799038E12,6.320187E10,1.6438484E12,0E0,1.1549158E12,6.714163E9,1.5914905E11,2.07261E11,3.5642163E8,1.1327921E12,6.579112E11,2.771397E11,8.800174E10,1.06171466E12,1.25448856E11,5.3493236E11,6.86904E11,2.0516742E12,9.786637E10,4.2839232E11,7.737914E11,2.6579907E11,3.0763306E11,2.6302543E12,4.1173406E12,4.5977128E11,1.273592E12,0E0,0E0,8.079572E11,1.4597059E12,1.057909E12,9.4019885E11,0E0,0E0,1.0374083E11,1.1873767E11,0E0,0E0,0E0,0E0,0E0,0E0,0E0,0E0,0E0,0E0,0E0,0E0,0E0,0E0,0E0,0E0,0E0,0E0,0E0,0E0,0E0,0E0,0E0,0E0,0E0,0E0,0E0,0E0,0E0,0E0,0E0,0E0,0E0,0E0,0E0,0E0,0E0,0E0,0E0,0E0,0E0,0E0,0E0,0E0,0E0,0E0,0E0,0E0,0E0,0E0,0E0,0E0],"parents":[2147483647,0,0,1,1,2,2,3,3,4,4,5,5,6,6,7,7,8,8,9,9,10,10,11,11,12,12,13,13,14,14,15,15,16,16,17,17,18,18,19,19,20,20,21,21,22,22,23,23,24,24,25,25,26,26,28,28,29,29,30,30,31,31,32,32,33,33,34,34,35,35,36,36,37,37,38,38,39,39,40,40,41,41,42,42,43,43,44,44,45,45,46,46,47,47,48,48,49,49,50,50,53,53,54,54,55,55,56,56,59,59,60,60],"right_children":[2,4,6,8,10,12,14,16,18,20,22,24,26,28,30,32,34,36,38,40,42,44,46,48,50,52,54,-1,56,58,60,62,64,66,68,70,72,74,76,78,80,82,84,86,88,90,92,94,96,98,100,-1,-1,102,104,106,108,-1,-1,110,112,-1,-1,-1,-1,-1,-1,-1,-1,-1,-1,-1,-1,-1,-1,-1,-1,-1,-1,-1,-1,-1,-1,-1,-1,-1,-1,-1,-1,-1,-1,-1,-1,-1,-1,-1,-1,-1,-1,-1,-1,-1,-1,-1,-1,-1,-1,-1,-1,-1,-1,-1,-1],"split_conditions":[1.41E2,1.006E2,9E0,8E0,8E0,1.73E2,1.2E1,6.8E1,8.046E1,1.775E2,1E1,1.79E1,1.6564E4,5E0,1E0,1.7E2,6E0,1.3E1,1E0,1.1344E4,2.085E1,1.998E3,1E0,1.396E1,1E0,2E0,7E0,2.323601E5,1.85E2,2.393E3,1.4E1,5E0,4.1261E4,1.1474E2,1.199E3,6.41E1,1.118E2,1.591E3,2.04E2,1.695E1,1E0,1.104E2,3E0,1.36E1,6E0,1.4E2,1.0845E2,6E0,4E0,7.0237E4,3E0,4.014356E5,1.608235E5,1.968E3,2.038E1,1.928E1,2.184E3,-4.4978023E4,-8.413585E3,4.1261E4,1.8774E2,-2.8486174E4,-4.269147E4,9.183976E3,3.4209695E4,-8.822295E3,1.6343465E4,-2.66259E4,-8.862612E3,-5.7571742E4,-4.202133E4,-6.4414188E4,-4.8928914E4,-3.4130105E4,1.860036E5,2.111401E4,-4.3748086E4,1.1150968E5,3.9839266E4,5.671747E3,2.8127363E4,1.1909273E4,9.145453E4,3.575866E4,-8.269848E3,4.245447E4,-1.3933659E4,1.5769461E5,3.650209E4,-3.7054105E4,-7.1282324E3,4.1537515E3,1.3232722E5,2.4928527E5,9.682828E4,1.2418236E5,4.005042E4,1.00147625E5,-7.5905664E4,2.4811426E4,2.854605E5,1.4698225E5,2.606149E5,1.9860152E5,8.174207E4,3.5251938E4,1.6697986E5,1.4552727E5,6.460907E2,6.763967E4,2.0129588E4,-2.8872979E4,3.2675865E4],"split_indices":[5,5,24,24,24,5,24,5,5,6,24,4,0,2,22,6,24,24,16,0,4,3,14,4,22,1,24,0,5,3,24,24,0,6,3,5,6,3,6,4,22,5,24,4,2,5,5,24,24,0,24,0,0,3,4,4,3,0,0,0,5,0,0,0,0,0,0,0,0,0,0,0,0,0,0,0,0,0,0,0,0,0,0,0,0,0,0,0,0,0,0,0,0,0,0,0,0,0,0,0,0,0,0,0,0,0,0,0,0,0,0,0,0],"split_type":[0,0,0,0,0,0,0,0,0,0,0,0,0,0,0,0,0,0,0,0,0,0,0,0,0,0,0,0,0,0,0,0,0,0,0,0,0,0,0,0,0,0,0,0,0,0,0,0,0,0,0,0,0,0,0,0,0,0,0,0,0,0,0,0,0,0,0,0,0,0,0,0,0,0,0,0,0,0,0,0,0,0,0,0,0,0,0,0,0,0,0,0,0,0,0,0,0,0,0,0,0,0,0,0,0,0,0,0,0,0,0,0,0],"sum_hessian":[5.733E3,5.067E3,6.66E2,3.693E3,1.374E3,4.8E2,1.86E2,1.948E3,1.745E3,8.85E2,4.89E2,3.12E2,1.68E2,1.16E2,7E1,4.26E2,1.522E3,8.82E2,8.63E2,6.11E2,2.74E2,2.32E2,2.57E2,2.76E2,3.6E1,1.4E1,1.54E2,3E0,1.13E2,1.6E1,5.4E1,4.22E2,4E0,7.69E2,7.53E2,6.21E2,2.61E2,8.3E2,3.3E1,6.7E1,5.44E2,2.2E2,5.4E1,1.99E2,3.3E1,2.51E2,6E0,5.6E1,2.2E2,5E0,3.1E1,1.2E1,2E0,8.4E1,7E1,8.8E1,2.5E1,1.5E1,1E0,4.2E1,1.2E1,1.58E2,2.64E2,1E0,3E0,5.41E2,2.28E2,3.84E2,3.69E2,1.45E2,4.76E2,1.98E2,6.3E1,8.29E2,1E0,3.1E1,2E0,1.1E1,5.6E1,3.58E2,1.86E2,3.5E1,1.85E2,4E0,5E1,1.2E1,1.87E2,5E0,2.8E1,2.2E2,3.1E1,4E0,2E0,4E1,1.6E1,8.7E1,1.33E2,4E0,1E0,2E0,2.9E1,1.1E1,7.3E1,5.6E1,1.4E1,8.3E1,5E0,2E1,5E0,4E0,3.8E1,9E0,3E0],"tree_param":{"num_deleted":"0","num_feature":"25","num_nodes":"113","size_leaf_vector":"1"}},{"base_weights":[1.616341E3,-3.6600203E4,3.085498E5,-5.9928727E4,5.3330453E4,3.9099738E5,1.07421016E5,-4.0345344E4,-1.15201195E5,1.1265413E5,-1.6666453E4,1.7415266E5,4.9040584E5,9.8738766E4,2.5704555E5,-6.414689E4,-8.97787E3,-1.2042182E5,4.0980082E4,2.3096897E5,8.662685E4,-4.4876562E4,6.0280043E4,1.2666056E5,3.932489E5,2.9638372E5,5.390875E5,-8.8572805E4,1.25879125E5,-2.381495E4,-8.213198E4,1.3277531E5,-1.7699145E4,-1.24027695E5,-8.003569E2,6.720227E4,-9.69609E4,1.6128262E5,3.2283438E5,7.030291E4,2.9292953E5,-1.4050403E4,-9.026306E4,4.881706E3,1.5800728E5,2.1303769E5,-5.543888E3,2.467685E5,4.9071434E5,4.2586747E5,1.0970923E4,5.858366E5,3.182951E5,-1.013129E5,1.0313639E4,-6.803363E4,1.3624248E5,-2.0332957E4,-1.4780266E3,-2.865233E4,-9.353016E3,1.6935328E4,9.7904836E4,-7.267931E3,2.791355E4,-3.4720426E4,-4.6568613E4,1.0065888E5,-1.0669654E4,8.897919E3,3.0830254E4,-1.3153132E4,-3.3767555E4,6.3574168E4,-6.0641895E3,1.09234195E5,1.7556895E4,7.7017984E4,1.7201045E4,3.3664266E4,1.8446694E5,-2.2601127E4,1.27181E4,-2.3110072E4,-6.847966E4,-3.3427215E4,7.180076E3,6.07393E4,-2.5208656E4,1.7806541E4,1.09521445E5,1.646838E4,-2.7870754E4,1.6238001E4,8.396526E4,4.5974253E3,1.5783119E5,9.734242E4,2.2144662E5,-1.4601976E4,8.298809E4,1.5390497E5,2.5478939E5,1.24674555E5,-6.056874E3,-7.1515503E3,-3.1160096E4,5.4180457E4,1.4239737E4],"categories":[],"categories_nodes":[],"categories_segments":[],"categories_sizes":[],"default_left":[0,0,0,0,0,0,0,0,0,0,0,0,0,0,0,0,0,0,0,0,0,0,0,0,0,0,0,0,0,0,0,0,0,0,0,0,0,0,0,0,0,0,0,0,0,0,0,0,0,0,0,0,0,0,0,0,0,0,0,0,0,0,0,0,0,0,0,0,0,0,0,0,0,0,0,0,0,0,0,0,0,0,0,0,0,0,0,0,0,0,0,0,0,0,0,0,0,0,0,0,0,0,0,0,0,0,0,0,0],"id":4,"left_children":[1,3,5,7,9,11,13,15,17,19,21,23,25,27,-1,29,31,33,35,37,39,41,43,45,47,49,51,53,55,57,59,61,63,65,67,69,71,73,75,77,79,81,83,85,87,89,91,93,95,97,99,101,103,105,-1,-1,107,-1,-1,-1,-1,-1,-1,-1,-1,-1,-1,-1,-1,-1,-1,-1,-1,-1,-1,-1,-1,-1,-1,-1,-1,-1,-1,-1,-1,-1,-1,-1,-1,-1,-1,-1,-1,-1,-1,-1,-1,-1,-1,-1,-1,-1,-1,-1,-1,-1,-1,-1,-1],"loss_changes":[6.7270747E13,1.0702738E13,1.0487941E13,4.3791617E12,4.3661279E12,9.614884E12,1.1255993E12,2.233234E12,8.684065E11,1.7321783E12,1.0511383E12,1.438154E12,2.749383E12,9.516346E11,0E0,1.2319048E12,1.5996086E12,4.4202407E11,1.3311501E11,6.009127E11,1.5554778E12,4.940099E11,7.0303914E11,1.3600946E12,2.3582658E11,2.3605328E12,2.3423762E12,4.1076965E10,6.229616E11,4.364327E11,7.985441E11,1.0896567E12,8.826982E11,2.3948952E11,3.7440274E11,3.700823E10,3.601613E7,5.5564776E11,4.4784943E11,1.0367566E12,1.9092275E12,7.365589E11,2.434914E11,1.887976E11,5.227428E11,1.6606067E12,2.5853136E11,6.140448E10,2.2747152E11,1.1536915E12,3.4620585E11,3.4205346E12,1.490243E12,1.877246E9,0E0,0E0,6.1363926E11,0E0,0E0,0E0,0E0,0E0,0E0,0E0,0E0,0E0,0E0,0E0,0E0,0E0,0E0,0E0,0E0,0E0,0E0,0E0,0E0,0E0,0E0,0E0,0E0,0E0,0E0,0E0,0E0,0E0,0E0,0E0,0E0,0E0,0E0,0E0,0E0,0E0,0E0,0E0,0E0,0E0,0E0,0E0,0E0,0E0,0E0,0E0,0E0,0E0,0E0,0E0,0E0],"parents":[2147483647,0,0,1,1,2,2,3,3,4,4,5,5,6,6,7,7,8,8,9,9,10,10,11,11,12,12,13,13,15,15,16,16,17,17,18,18,19,19,20,20,21,21,22,22,23,23,24,24,25,25,26,26,27,27,28,28,29,29,30,30,31,31,32,32,33,33,34,34,35,35,36,36,37,37,38,38,39,39,40,40,41,41,42,42,43,43,44,44,45,45,46,46,47,47,48,48,49,49,50,50,51,51,52,52,53,53,56,56],"right_children":[2,4,6,8,10,12,14,16,18,20,22,24,26,28,-1,30,32,34,36,38,40,42,44,46,48,50,52,54,56,58,60,62,64,66,68,70,72,74,76,78,80,82,84,86,88,90,92,94,96,98,100,102,104,106,-1,-1,108,-1,-1,-1,-1,-1,-1,-1,-1,-1,-1,-1,-1,-1,-1,-1,-1,-1,-1,-1,-1,-1,-1,-1,-1,-1,-1,-1,-1,-1,-1,-1,-1,-1,-1,-1,-1,-1,-1,-1,-1,-1,-1,-1,-1,-1,-1,-1,-1,-1,-1,-1,-1],"split_conditions":[1.43E2,1.086E2,9E0,1E1,7E0,1E0,1E0,1.147E2,1E0,3E0,1E0,2.184E3,2.598E2,1E0,2.5704555E5,5E0,3E0,1E0,1.38175E5,1.248E3,1.799E3,1E1,1.586E3,6E0,1.4794E2,6E0,2.148E3,3.82E2,2.04E2,6.71E1,1E0,1E0,1E0,1.4E1,2.1298E4,1.499E3,1.298E3,1.198E3,2.53E2,1.45E2,1.701E1,1.582E3,1.5E1,1.42E2,9E4,1.637E2,7E0,2.9336E4,6.398E3,2.143E3,1.609E1,1.996E3,1.51E1,1.157E1,1.0313639E4,-6.803363E4,1.2E1,-2.0332957E4,-1.4780266E3,-2.865233E4,-9.353016E3,1.6935328E4,9.7904836E4,-7.267931E3,2.791355E4,-3.4720426E4,-4.6568613E4,1.0065888E5,-1.0669654E4,8.897919E3,3.0830254E4,-1.3153132E4,-3.3767555E4,6.3574168E4,-6.0641895E3,1.09234195E5,1.7556895E4,7.7017984E4,1.7201045E4,3.3664266E4,1.8446694E5,-2.2601127E4,1.27181E4,-2.3110072E4,-6.847966E4,-3.3427215E4,7.180076E3,6.07393E4,-2.5208656E4,1.7806541E4,1.09521445E5,1.646838E4,-2.7870754E4,1.6238001E4,8.396526E4,4.5974253E3,1.5783119E5,9.734242E4,2.2144662E5,-1.4601976E4,8.298809E4,1.5390497E5,2.5478939E5,1.24674555E5,-6.056874E3,-7.1515503E3,-3.1160096E4,5.4180457E4,1.4239737E4],"split_indices":[5,5,24,24,24,22,12,6,16,24,22,3,6,22,0,24,24,22,0,3,3,24,3,24,5,24,3,6,6,5,22,22,16,24,0,3,3,3,6,6,4,3,24,6,0,5,24,0,0,3,4,3,4,4,0,0,24,0,0,0,0,0,0,0,0,0,0,0,0,0,0,0,0,0,0,0,0,0,0,0,0,0,0,0,0,0,0,0,0,0,0,0,0,0,0,0,0,0,0,0,0,0,0,0,0,0,0,0,0],"split_type":[0,0,0,0,0,0,0,0,0,0,0,0,0,0,0,0,0,0,0,0,0,0,0,0,0,0,0,0,0,0,0,0,0,0,0,0,0,0,0,0,0,0,0,0,0,0,0,0,0,0,0,0,0,0,0,0,0,0,0,0,0,0,0,0,0,0,0,0,0,0,0,0,0,0,0,0,0,0,0,0,0,0,0,0,0,0,0,0,0,0,0,0,0,0,0,0,0,0,0,0,0,0,0,0,0,0,0,0,0],"sum_hessian":[5.733E3,5.099E3,6.34E2,4.049E3,1.05E3,4.49E2,1.85E2,2.991E3,1.058E3,5.68E2,4.82E2,1.42E2,3.07E2,1.84E2,1E0,1.7E3,1.291E3,1.024E3,3.4E1,1.01E2,4.67E2,3.53E2,1.29E2,1.18E2,2.4E1,6.3E1,2.44E2,2.3E1,1.61E2,5.25E2,1.175E3,7.4E1,1.217E3,9.94E2,3E1,2.9E1,5E0,5.9E1,4.2E1,4.34E2,3.3E1,2.11E2,1.42E2,8.3E1,4.6E1,7.1E1,4.7E1,1.1E1,1.3E1,4.3E1,2E1,2E2,4.4E1,2.1E1,2E0,4E0,1.57E2,1.57E2,3.68E2,9.3E2,2.45E2,5.4E1,2E1,1.15E3,6.7E1,7.89E2,2.05E2,2E0,2.8E1,1.5E1,1.4E1,2E0,3E0,4.6E1,1.3E1,3.6E1,6E0,2.7E1,4.07E2,2.2E1,1.1E1,1.01E2,1.1E2,1.31E2,1.1E1,1.1E1,7.2E1,3.9E1,7E0,3.6E1,3.5E1,2.8E1,1.9E1,2E0,9E0,1E0,1.2E1,3.4E1,9E0,1.7E1,3E0,1.59E2,4.1E1,3.4E1,1E1,1E0,2E1,1.04E2,5.3E1],"tree_param":{"num_deleted":"0","num_feature":"25","num_nodes":"109","size_leaf_vector":"1"}},{"base_weights":[1.4809519E3,-2.633717E4,2.128464E5,-4.227942E4,4.5971246E4,2.7680762E5,8.847895E4,-5.7173707E4,2.0314586E4,3.7735062E4,3.5051044E5,2.1005911E5,4.681059E5,6.735363E5,7.502465E4,-8.4887336E4,-4.4911344E4,6.2798926E4,-1.2439538E4,1.7812166E5,2.2938281E4,4.3767803E5,1.606125E4,1.6700598E5,4.5178997E5,5.2486494E5,6.2289426E4,2.7886253E5,5.790564E4,3.4882293E4,1.948288E5,-5.790533E4,-9.867057E4,-4.9181027E4,3.8441793E4,1.3868573E5,4.1085383E4,-1.3936605E5,-3.0860757E3,1.1615603E5,4.1915147E5,-1.3027024E4,4.7743246E4,4.668026E5,3.802385E4,9.69856E4,-5.828408E4,1.3527964E5,3.7828238E5,-4.7371547E4,5.8099475E5,6.28025E5,1.943901E5,5.021917E5,-8.9535445E4,-7.545578E4,6.2210324E4,2.4150825E5,3.545125E3,-5.361612E4,-1.6257766E4,-2.8185965E4,-4.0458855E4,-1.1265929E4,-2.3473992E4,1.4547403E4,-2.5257264E4,6.429181E4,2.733017E4,1.0299996E2,2.8762037E4,-3.0276723E4,-5.544973E4,1.6420938E4,-6.506418E3,1.8069873E4,6.555066E4,1.4469517E5,2.7985041E4,8.452309E3,-1.1644505E4,2.649212E4,4.0572034E3,1.4540906E5,2.7074213E4,-4.040858E4,5.657389E4,5.1043496E4,-4.5659995E3,2.9791566E5,9.387361E4,-6.559652E4,1.3257497E4,2.8077666E5,1.3299575E5,1.5226575E5,2.4702003E5,1.122717E5,-5.0077016E4,1.9430339E5,9.85995E3,-9.746404E4,7.5031714E3,-3.6676414E4,3.675581E4,2.5616896E4,-1.8534621E4,8.816599E4,2.1893143E4,-1.6439516E4,2.130651E4],"categories":[],"categories_nodes":[],"categories_segments":[],"categories_sizes":[],"default_left":[0,0,0,0,0,0,0,0,0,0,0,0,0,0,0,0,0,0,0,0,0,0,0,0,0,0,0,0,0,0,0,0,0,0,0,0,0,0,0,0,0,0,0,0,0,0,0,0,0,0,0,0,0,0,0,0,0,0,0,0,0,0,0,0,0,0,0,0,0,0,0,0,0,0,0,0,0,0,0,0,0,0,0,0,0,0,0,0,0,0,0,0,0,0,0,0,0,0,0,0,0,0,0,0,0,0,0,0,0,0,0],"id":5,"left_children":[1,3,5,7,9,11,13,15,17,19,21,23,25,27,29,31,33,35,37,39,41,43,45,47,49,51,53,-1,-1,55,57,59,61,63,65,67,69,71,73,75,77,79,81,83,-1,85,-1,87,89,91,93,95,97,99,101,103,105,107,109,-1,-1,-1,-1,-1,-1,-1,-1,-1,-1,-1,-1,-1,-1,-1,-1,-1,-1,-1,-1,-1,-1,-1,-1,-1,-1,-1,-1,-1,-1,-1,-1,-1,-1,-1,-1,-1,-1,-1,-1,-1,-1,-1,-1,-1,-1,-1,-1,-1,-1,-1,-1],"loss_changes":[3.372032E13,5.844126E12,5.2812893E12,3.8729752E12,2.2843218E12,5.5199725E12,1.7441803E12,1.1363324E12,1.1126195E12,1.8509162E12,6.926455E11,3.3381312E12,2.5701185E12,4.3565633E11,1.0704691E12,3.765992E11,8.304056E11,5.677266E11,5.3618527E11,1.2208355E12,7.2234546E11,1.1289389E11,1.2097289E11,1.8256746E12,3.1877319E12,3.2530078E12,1.0467855E12,0E0,0E0,5.142836E11,4.991687E11,1.4731038E11,1.032559E11,7.4567175E11,1.4457646E11,2.5755386E11,6.0711954E11,3.5530998E10,4.5509614E11,3.817615E11,3.0493062E11,3.527814E11,6.636878E11,7.0806405E10,0E0,1.3150368E11,0E0,1.2881588E12,1.1360199E12,1.8217868E11,1.4908161E12,1.3473824E12,1.687015E12,2.5183453E11,3.31619E11,3.2998942E11,3.961477E11,3.7578552E11,5.1133714E10,0E0,0E0,0E0,0E0,0E0,0E0,0E0,0E0,0E0,0E0,0E0,0E0,0E0,0E0,0E0,0E0,0E0,0E0,0E0,0E0,0E0,0E0,0E0,0E0,0E0,0E0,0E0,0E0,0E0,0E0,0E0,0E0,0E0,0E0,0E0,0E0,0E0,0E0,0E0,0E0,0E0,0E0,0E0,0E0,0E0,0E0,0E0,0E0,0E0,0E0,0E0,0E0],"parents":[2147483647,0,0,1,1,2,2,3,3,4,4,5,5,6,6,7,7,8,8,9,9,10,10,11,11,12,12,13,13,14,14,15,15,16,16,17,17,18,18,19,19,20,20,21,21,22,22,23,23,24,24,25,25,26,26,29,29,30,30,31,31,32,32,33,33,34,34,35,35,36,36,37,37,38,38,39,39,40,40,41,41,42,42,43,43,45,45,47,47,48,48,49,49,50,50,51,51,52,52,53,53,54,54,55,55,56,56,57,57,58,58],"right_children":[2,4,6,8,10,12,14,16,18,20,22,24,26,28,30,32,34,36,38,40,42,44,46,48,50,52,54,-1,-1,56,58,60,62,64,66,68,70,72,74,76,78,80,82,84,-1,86,-1,88,90,92,94,96,98,100,102,104,106,108,110,-1,-1,-1,-1,-1,-1,-1,-1,-1,-1,-1,-1,-1,-1,-1,-1,-1,-1,-1,-1,-1,-1,-1,-1,-1,-1,-1,-1,-1,-1,-1,-1,-1,-1,-1,-1,-1,-1,-1,-1,-1,-1,-1,-1,-1,-1,-1,-1,-1,-1,-1,-1],"split_conditions":[1.41E2,1E0,8E0,1E0,1.998E3,1.77E2,5E0,7.4E1,6E0,3E0,6E0,3.735E2,2.143E3,2E0,1.85E2,7E0,1E0,1.695E1,1.199E3,1.482E3,1.147E2,7.5E4,3E0,2.184E3,1.577E2,2.038E1,3.0033E4,2.7886253E5,5.790564E4,2.53E2,2.184E3,1.701E1,1.14676E5,1E1,1.38175E5,4E0,1.7162E2,6.4906E4,1.399E3,1.104E2,1.1398E2,2.014E1,4.9647E4,1.792E1,3.802385E4,7E0,-5.828408E4,1.984E3,1E0,2E0,5E0,1.9E2,7E0,4.24E2,1.85E2,1.635E1,1.01434E5,1.2E1,2.393E3,-5.361612E4,-1.6257766E4,-2.8185965E4,-4.0458855E4,-1.1265929E4,-2.3473992E4,1.4547403E4,-2.5257264E4,6.429181E4,2.733017E4,1.0299996E2,2.8762037E4,-3.0276723E4,-5.544973E4,1.6420938E4,-6.506418E3,1.8069873E4,6.555066E4,1.4469517E5,2.7985041E4,8.452309E3,-1.1644505E4,2.649212E4,4.0572034E3,1.4540906E5,2.7074213E4,-4.040858E4,5.657389E4,5.1043496E4,-4.5659995E3,2.9791566E5,9.387361E4,-6.559652E4,1.3257497E4,2.8077666E5,1.3299575E5,1.5226575E5,2.4702003E5,1.122717E5,-5.0077016E4,1.9430339E5,9.85995E3,-9.746404E4,7.5031714E3,-3.6676414E4,3.675581E4,2.5616896E4,-1.8534621E4,8.816599E4,2.1893143E4,-1.6439516E4,2.130651E4],"split_indices":[5,22,24,19,3,5,2,5,24,24,2,6,3,1,5,24,16,4,3,3,6,0,1,3,5,4,0,0,0,6,3,4,0,24,0,24,6,0,3,5,5,4,0,4,0,24,0,3,16,1,24,5,24,6,5,4,0,24,3,0,0,0,0,0,0,0,0,0,0,0,0,0,0,0,0,0,0,0,0,0,0,0,0,0,0,0,0,0,0,0,0,0,0,0,0,0,0,0,0,0,0,0,0,0,0,0,0,0,0,0,0],"split_type":[0,0,0,0,0,0,0,0,0,0,0,0,0,0,0,0,0,0,0,0,0,0,0,0,0,0,0,0,0,0,0,0,0,0,0,0,0,0,0,0,0,0,0,0,0,0,0,0,0,0,0,0,0,0,0,0,0,0,0,0,0,0,0,0,0,0,0,0,0,0,0,0,0,0,0,0,0,0,0,0,0,0,0,0,0,0,0,0,0,0,0,0,0,0,0,0,0,0,0,0,0,0,0,0,0,0,0,0,0,0,0],"sum_hessian":[5.733E3,5.067E3,6.66E2,4.152E3,9.15E2,4.39E2,2.27E2,3.354E3,7.98E2,8.92E2,2.3E1,3.27E2,1.12E2,4E0,2.23E2,1.027E3,2.327E3,3.47E2,4.51E2,8.4E1,8.08E2,1.8E1,5E0,2.79E2,4.8E1,9.8E1,1.4E1,2E0,2E0,1.68E2,5.5E1,3.49E2,6.78E2,2.214E3,1.13E2,7.6E1,2.71E2,3E1,4.21E2,6.8E1,1.6E1,3.3E2,4.78E2,1.6E1,2E0,4E0,1E0,2.44E2,3.5E1,1E1,3.8E1,7.4E1,2.4E1,3E0,1.1E1,3.3E1,1.35E2,4.4E1,1.1E1,9E0,3.4E2,6.03E2,7.5E1,1.583E3,6.31E2,1.05E2,8E0,2.8E1,4.8E1,1.56E2,1.15E2,1.8E1,1.2E1,1.02E2,3.19E2,4.5E1,2.3E1,1.3E1,3E0,1.27E2,2.03E2,2.18E2,2.6E2,1.5E1,1E0,1E0,3E0,1.98E2,4.6E1,2E0,3.3E1,3E0,7E0,9E0,2.9E1,4.8E1,2.6E1,1.6E1,8E0,2E0,1E0,3E0,8E0,2.7E1,6E0,1.14E2,2.1E1,3.3E1,1.1E1,6E0,5E0],"tree_param":{"num_deleted":"0","num_feature":"25","num_nodes":"111","size_leaf_vector":"1"}},{"base_weights":[1.4111033E3,-1.791587E4,1.5663339E5,-3.0055871E4,3.453648E4,2.2634384E5,8.046686E4,-7.1913315E3,-4.676414E4,1.7255805E5,1.8267896E4,1.6484722E5,3.969223E5,4.474443E4,1.8566128E5,1.8327887E4,-2.5906727E4,-6.778042E4,-3.792877E4,2.0655545E5,-9.680241E4,-1.9920248E3,5.9948414E4,1.464199E5,6.317833E5,4.9869134E5,1.6467003E5,-5.5259164E4,7.087316E4,2.7802294E5,8.355265E4,1.5813219E5,1.4230497E4,-3.493572E4,8.449202E3,-8.897896E4,-5.9985984E4,-3.0523424E4,-6.4024223E4,1.8051328E5,1.4686611E5,2.2468182E4,-1.192197E5,1.2640719E4,-4.753658E4,4.4118414E4,2.4430534E5,3.2908628E5,1.0877812E5,3.1945212E5,2.204121E5,5.5045106E5,-5.8887832E4,2.9343747E5,-9.6455125E4,1.8159916E4,-8.918177E4,6.475793E4,1.7665931E5,1.5767564E5,4.9026253E5,2.4702617E5,3.1725502E4,5.927096E4,-4.3305152E4,1.4760006E3,1.9605588E4,-8.294215E3,-1.8595441E4,1.39241455E4,-1.6699473E3,-2.249885E4,-3.2448602E4,-1.9262361E4,1.05540276E2,-7.416256E3,-1.877665E4,-2.1146578E4,1.5981956E4,6.600269E4,3.8790023E4,-4.0641234E4,-1.7073783E4,-5.40625E3,1.4611238E4,-3.2034582E4,-8.313897E3,3.9286355E4,9.406959E3,9.4400805E4,1.2669282E3,4.7859996E4,1.30642305E5,5.7581387E4,1.0437277E4,1.2528375E3,1.2694563E5,2.203998E5,1.3461177E5,-5.1971277E4,1.2478932E4,8.809365E3,1.0856979E5,1.7113126E3,-1.0101863E5,-1.0960748E4,1.9428176E4,-1.783047E4,-4.8570863E4,4.53017E4,1.0013985E4,2.9119977E4,1.21482664E5,1.9364531E5,2.4529906E4,2.3714895E4,1.09679234E5,2.2292684E4,-2.2767725E4],"categories":[],"categories_nodes":[],"categories_segments":[],"categories_sizes":[],"default_left":[0,0,0,0,0,0,0,0,0,0,0,0,0,0,0,0,0,0,0,0,0,0,0,0,0,0,0,0,0,0,0,0,0,0,0,0,0,0,0,0,0,0,0,0,0,0,0,0,0,0,0,0,0,0,0,0,0,0,0,0,0,0,0,0,0,0,0,0,0,0,0,0,0,0,0,0,0,0,0,0,0,0,0,0,0,0,0,0,0,0,0,0,0,0,0,0,0,0,0,0,0,0,0,0,0,0,0,0,0,0,0,0,0,0,0,0,0,0,0],"id":6,"left_children":[1,3,5,7,9,11,13,15,17,19,21,23,25,27,29,31,33,35,37,39,41,43,45,47,49,51,53,55,57,59,61,63,65,67,69,71,73,75,77,79,-1,-1,81,83,85,87,89,91,93,95,-1,97,99,101,103,105,107,109,-1,111,113,115,117,-1,-1,-1,-1,-1,-1,-1,-1,-1,-1,-1,-1,-1,-1,-1,-1,-1,-1,-1,-1,-1,-1,-1,-1,-1,-1,-1,-1,-1,-1,-1,-1,-1,-1,-1,-1,-1,-1,-1,-1,-1,-1,-1,-1,-1,-1,-1,-1,-1,-1,-1,-1,-1,-1,-1,-1],"loss_changes":[1.7204674E13,3.2485734E12,3.3533838E12,1.5820191E12,2.1502012E12,3.4067595E12,1.1378216E12,8.362788E11,4.4177713E11,9.4490853E11,7.254968E11,2.015567E12,1.9742201E12,6.022857E11,7.029517E11,4.2221876E11,3.1359658E11,1.1148014E11,3.240514E11,5.749193E11,5.5116464E10,3.8647067E11,8.092838E11,1.5937873E12,5.4612197E10,1.7640226E12,9.697873E11,1.21166725E11,5.383755E11,9.443958E11,3.1411287E11,2.7903282E11,3.4285E11,1.5600052E11,1.1253155E11,4.231594E10,1.3248705E11,2.4331013E11,2.8582583E11,1.4145972E11,0E0,0E0,3.428139E9,4.863063E11,1.6263899E11,2.840237E11,3.7032034E11,6.520643E11,1.2115695E12,1.2900929E11,0E0,7.012163E11,7.614817E10,3.328723E11,2.4738315E11,4.314781E10,6.1763715E10,4.84796E11,0E0,3.653316E11,8.3492654E11,1.503544E11,1.4312174E11,0E0,0E0,0E0,0E0,0E0,0E0,0E0,0E0,0E0,0E0,0E0,0E0,0E0,0E0,0E0,0E0,0E0,0E0,0E0,0E0,0E0,0E0,0E0,0E0,0E0,0E0,0E0,0E0,0E0,0E0,0E0,0E0,0E0,0E0,0E0,0E0,0E0,0E0,0E0,0E0,0E0,0E0,0E0,0E0,0E0,0E0,0E0,0E0,0E0,0E0,0E0,0E0,0E0,0E0,0E0,0E0],"parents":[2147483647,0,0,1,1,2,2,3,3,4,4,5,5,6,6,7,7,8,8,9,9,10,10,11,11,12,12,13,13,14,14,15,15,16,16,17,17,18,18,19,19,20,20,21,21,22,22,23,23,24,24,25,25,26,26,27,27,28,28,29,29,30,30,31,31,32,32,33,33,34,34,35,35,36,36,37,37,38,38,39,39,42,42,43,43,44,44,45,45,46,46,47,47,48,48,49,49,51,51,52,52,53,53,54,54,55,55,56,56,57,57,59,59,60,60,61,61,62,62],"right_children":[2,4,6,8,10,12,14,16,18,20,22,24,26,28,30,32,34,36,38,40,42,44,46,48,50,52,54,56,58,60,62,64,66,68,70,72,74,76,78,80,-1,-1,82,84,86,88,90,92,94,96,-1,98,100,102,104,106,108,110,-1,112,114,116,118,-1,-1,-1,-1,-1,-1,-1,-1,-1,-1,-1,-1,-1,-1,-1,-1,-1,-1,-1,-1,-1,-1,-1,-1,-1,-1,-1,-1,-1,-1,-1,-1,-1,-1,-1,-1,-1,-1,-1,-1,-1,-1,-1,-1,-1,-1,-1,-1,-1,-1,-1,-1,-1,-1,-1,-1],"split_conditions":[1.43E2,1.1342E2,7E0,7E0,1.163E2,3.735E2,1.85E2,1E0,1.1E2,2.53E2,1E0,1.8908E2,2.148E3,1E0,6.8336E4,2E0,1E0,9.98E2,9.7845E4,6E0,1.0711E4,1E1,1.998E3,1.4992E2,1.9E2,2.254E1,1.77E2,1.396E1,1E0,1.8908E2,1.8774E2,3.0033E4,2.301E1,2.261E1,1.969E1,1.1E1,2.44E1,1.2E1,1.969E3,1.815E1,1.4686611E5,2.2468182E4,3.5413E4,1.498E3,1.462E1,2.1298E4,6E0,1E0,4E0,1.453E1,2.204121E5,1.8104E2,2.6E4,2.184E3,2.231E3,3.43E2,1.995E3,1.424E1,1.7665931E5,2.07E1,1.1E1,7.0237E4,1.965E1,5.927096E4,-4.3305152E4,1.4760006E3,1.9605588E4,-8.294215E3,-1.8595441E4,1.39241455E4,-1.6699473E3,-2.249885E4,-3.2448602E4,-1.9262361E4,1.05540276E2,-7.416256E3,-1.877665E4,-2.1146578E4,1.5981956E4,6.600269E4,3.8790023E4,-4.0641234E4,-1.7073783E4,-5.40625E3,1.4611238E4,-3.2034582E4,-8.313897E3,3.9286355E4,9.406959E3,9.4400805E4,1.2669282E3,4.7859996E4,1.30642305E5,5.7581387E4,1.0437277E4,1.2528375E3,1.2694563E5,2.203998E5,1.3461177E5,-5.1971277E4,1.2478932E4,8.809365E3,1.0856979E5,1.7113126E3,-1.0101863E5,-1.0960748E4,1.9428176E4,-1.783047E4,-4.8570863E4,4.53017E4,1.0013985E4,2.9119977E4,1.21482664E5,1.9364531E5,2.4529906E4,2.3714895E4,1.09679234E5,2.2292684E4,-2.2767725E4],"split_indices":[5,5,24,24,5,6,5,14,6,6,22,5,3,22,0,24,22,3,0,2,0,24,3,5,5,4,5,4,12,5,5,0,4,4,4,24,4,24,3,4,0,0,0,3,4,0,2,22,24,4,0,5,0,3,3,6,3,4,0,4,24,0,4,0,0,0,0,0,0,0,0,0,0,0,0,0,0,0,0,0,0,0,0,0,0,0,0,0,0,0,0,0,0,0,0,0,0,0,0,0,0,0,0,0,0,0,0,0,0,0,0,0,0,0,0,0,0,0,0],"split_type":[0,0,0,0,0,0,0,0,0,0,0,0,0,0,0,0,0,0,0,0,0,0,0,0,0,0,0,0,0,0,0,0,0,0,0,0,0,0,0,0,0,0,0,0,0,0,0,0,0,0,0,0,0,0,0,0,0,0,0,0,0,0,0,0,0,0,0,0,0,0,0,0,0,0,0,0,0,0,0,0,0,0,0,0,0,0,0,0,0,0,0,0,0,0,0,0,0,0,0,0,0,0,0,0,0,0,0,0,0,0,0,0,0,0,0,0,0,0,0],"sum_hessian":[5.733E3,5.099E3,6.34E2,4.141E3,9.58E2,3.3E2,3.04E2,1.749E3,2.392E3,1E2,8.58E2,2.44E2,8.6E1,2.28E2,7.6E1,7.4E2,1.009E3,7.06E2,1.686E3,8.9E1,1.1E1,5.78E2,2.8E2,2.36E2,8E0,5.9E1,2.7E1,4.7E1,1.81E2,3.9E1,3.7E1,2E1,7.2E2,7.99E2,2.1E2,1.87E2,5.19E2,1.315E3,3.71E2,8.3E1,6E0,1E0,1E1,4.38E2,1.4E2,2.59E2,2.1E1,3.9E1,1.97E2,3E0,5E0,5.4E1,5E0,1.8E1,9E0,1.5E1,3.2E1,1.8E2,1E0,2.6E1,1.3E1,8E0,2.9E1,1.8E1,2E0,6.1E2,1.1E2,6.31E2,1.68E2,5.6E1,1.54E2,1.11E2,7.6E1,4.85E2,3.4E1,1.115E3,2E2,3.52E2,1.9E1,4.5E1,3.8E1,7E0,3E0,2.37E2,2.01E2,3.4E1,1.06E2,3.2E1,2.27E2,1.6E1,5E0,1.6E1,2.3E1,9.2E1,1.05E2,1E0,2E0,1.7E1,3.7E1,2E0,3E0,4E0,1.4E1,7E0,2E0,7E0,8E0,2.4E1,8E0,4.7E1,1.33E2,2.2E1,4E0,9E0,4E0,4E0,4E0,2.1E1,8E0],"tree_param":{"num_deleted":"0","num_feature":"25","num_nodes":"119","size_leaf_vector":"1"}},{"base_weights":[1.3105887E3,-1.2492763E4,1.12170086E5,1.5780373E4,-2.5481078E4,1.4104302E5,1.4499516E4,-1.9912399E3,5.5095164E4,-4.1387875E4,-1.2213443E4,5.2126145E4,1.7717539E5,1.9492933E3,2.3074719E5,-1.0656311E4,2.7602213E4,9.365702E4,3.1757387E4,-4.7038215E4,-9.432258E3,-2.0198064E4,2.5588328E4,-1.3979069E5,7.403798E4,2.9641375E5,1.5803175E5,2.357236E4,-5.4098883E4,3.714382E5,-2.8033438E3,2.0662896E4,-1.8780896E4,-3.9279953E4,3.6516008E4,8.387443E4,5.2268778E5,3.766989E4,-6.1713438E4,-4.2537754E4,-7.3007875E4,8.266409E3,-2.8741822E4,2.4890086E4,-2.3700014E4,1.3642572E4,1.9383777E5,-7.2234945E4,-7.813656E4,1.1859204E5,-8.931133E3,-6.4119297E4,3.9558806E5,-7.959596E4,1.7160392E5,5.06688E4,-6.547326E4,-7.111059E4,1.1253125E5,1.2281345E5,3.295174E4,-2.0416201E4,2.8942295E4,2.4372293E4,2.020098E3,-4.2745566E4,-5.1854194E3,2.0137863E4,-1.4783328E4,2.0394451E4,1.1581201E3,7.5157812E3,4.7726836E4,1.83463E5,3.841817E4,9.283232E3,3.3697754E4,-2.8012414E4,1.3683923E4,-1.8953764E4,-1.1289061E4,-3.0636982E4,-1.699286E4,3.5818086E3,-1.066013E4,-6.4373955E3,-2.2761062E4,1.002336E4,-7.425489E2,-7.671445E3,1.8219105E4,2.8100552E2,2.0097508E4,1.2138298E5,3.735636E4,-6.4151914E4,1.1769178E4,-2.1586973E4,4.0251645E4,-1.5745511E4,4.032625E4,-6.388689E4,1.2112944E5,4.5547133E4,1.3727944E5,2.738458E3,-6.2294637E4,6.01941E4,2.7889164E4,-1.3738473E4,2.2890387E4,-3.9547164E4,-7.2176885E3,-2.8236072E4,2.7111963E4,4.9623676E4,-6.9167627E3],"categories":[],"categories_nodes":[],"categories_segments":[],"categories_sizes":[],"default_left":[0,0,0,0,0,0,0,0,0,0,0,0,0,0,0,0,0,0,0,0,0,0,0,0,0,0,0,0,0,0,0,0,0,0,0,0,0,0,0,0,0,0,0,0,0,0,0,0,0,0,0,0,0,0,0,0,0,0,0,0,0,0,0,0,0,0,0,0,0,0,0,0,0,0,0,0,0,0,0,0,0,0,0,0,0,0,0,0,0,0,0,0,0,0,0,0,0,0,0,0,0,0,0,0,0,0,0,0,0,0,0,0,0,0,0,0,0],"id":7,"left_children":[1,3,5,7,9,11,13,15,17,19,21,23,25,27,29,31,33,35,37,39,41,43,45,47,49,51,53,55,57,59,61,63,65,67,69,71,73,75,77,79,81,83,85,87,89,91,93,95,-1,97,99,101,103,105,107,109,111,113,115,-1,-1,-1,-1,-1,-1,-1,-1,-1,-1,-1,-1,-1,-1,-1,-1,-1,-1,-1,-1,-1,-1,-1,-1,-1,-1,-1,-1,-1,-1,-1,-1,-1,-1,-1,-1,-1,-1,-1,-1,-1,-1,-1,-1,-1,-1,-1,-1,-1,-1,-1,-1,-1,-1,-1,-1,-1,-1],"loss_changes":[8.775755E12,1.873226E12,1.7886777E12,1.1222015E12,7.3709886E11,1.5650259E12,3.9578783E11,2.8416144E11,4.4699982E11,2.8646598E11,5.761119E11,6.117005E11,7.475225E11,1.6973398E11,2.6390888E11,2.1845652E11,1.5107403E11,7.4520225E11,1.7530307E11,1.5467623E11,8.2258444E10,2.492768E11,6.666412E11,1.0345975E11,4.7792194E11,1.705879E12,9.8764535E11,2.4701223E11,1.1855405E11,4.6596096E9,3.247719E10,1.488067E11,1.23578106E11,3.522267E10,2.2784806E11,8.145072E11,6.194476E10,1.4464945E11,6.88229E10,1.1442035E11,8.855722E10,2.0694618E10,3.7848654E10,2.6665484E10,2.3256184E11,2.1142577E11,2.7103756E11,1.820136E11,0E0,2.5903117E11,2.9425782E11,8.520074E11,4.8981135E11,1.9503887E11,6.3455625E11,1.9635736E11,6.2777197E10,1.4227053E11,3.2493654E10,0E0,0E0,0E0,0E0,0E0,0E0,0E0,0E0,0E0,0E0,0E0,0E0,0E0,0E0,0E0,0E0,0E0,0E0,0E0,0E0,0E0,0E0,0E0,0E0,0E0,0E0,0E0,0E0,0E0,0E0,0E0,0E0,0E0,0E0,0E0,0E0,0E0,0E0,0E0,0E0,0E0,0E0,0E0,0E0,0E0,0E0,0E0,0E0,0E0,0E0,0E0,0E0,0E0,0E0,0E0,0E0,0E0,0E0],"parents":[2147483647,0,0,1,1,2,2,3,3,4,4,5,5,6,6,7,7,8,8,9,9,10,10,11,11,12,12,13,13,14,14,15,15,16,16,17,17,18,18,19,19,20,20,21,21,22,22,23,23,24,24,25,25,26,26,27,27,28,28,29,29,30,30,31,31,32,32,33,33,34,34,35,35,36,36,37,37,38,38,39,39,40,40,41,41,42,42,43,43,44,44,45,45,46,46,47,47,49,49,50,50,51,51,52,52,53,53,54,54,55,55,56,56,57,57,58,58],"right_children":[2,4,6,8,10,12,14,16,18,20,22,24,26,28,30,32,34,36,38,40,42,44,46,48,50,52,54,56,58,60,62,64,66,68,70,72,74,76,78,80,82,84,86,88,90,92,94,96,-1,98,100,102,104,106,108,110,112,114,116,-1,-1,-1,-1,-1,-1,-1,-1,-1,-1,-1,-1,-1,-1,-1,-1,-1,-1,-1,-1,-1,-1,-1,-1,-1,-1,-1,-1,-1,-1,-1,-1,-1,-1,-1,-1,-1,-1,-1,-1,-1,-1,-1,-1,-1,-1,-1,-1,-1,-1,-1,-1,-1,-1,-1,-1,-1,-1],"split_conditions":[1.43E2,6E0,1E1,1.248E3,1.147E2,1E0,1.928E1,1E0,4E0,8.72E1,1E0,1.396E3,1.6564E4,1.71E1,5.5418E4,3E0,1.71E1,2.517E1,1.03116E5,8.31E1,6.2411E4,1.1474E2,1.998E3,2E0,6.0529E4,1.577E2,1.373E3,2.184E3,1.85E2,5.0629E4,8E4,1.849E1,1.62E1,8.94E3,2.009E1,1.1342E2,6E0,1E0,1.498E3,6.21E1,9E0,8.873E1,8.873E1,7.6567E4,2.494E3,1.586E3,3.6032E4,5E0,-7.813656E4,5E0,2.184E3,1.0711E4,8E3,6E0,8E0,2.9E2,1.2E1,2.148E3,1.1E1,1.2281345E5,3.295174E4,-2.0416201E4,2.8942295E4,2.4372293E4,2.020098E3,-4.2745566E4,-5.1854194E3,2.0137863E4,-1.4783328E4,2.0394451E4,1.1581201E3,7.5157812E3,4.7726836E4,1.83463E5,3.841817E4,9.283232E3,3.3697754E4,-2.8012414E4,1.3683923E4,-1.8953764E4,-1.1289061E4,-3.0636982E4,-1.699286E4,3.5818086E3,-1.066013E4,-6.4373955E3,-2.2761062E4,1.002336E4,-7.425489E2,-7.671445E3,1.8219105E4,2.8100552E2,2.0097508E4,1.2138298E5,3.735636E4,-6.4151914E4,1.1769178E4,-2.1586973E4,4.0251645E4,-1.5745511E4,4.032625E4,-6.388689E4,1.2112944E5,4.5547133E4,1.3727944E5,2.738458E3,-6.2294637E4,6.01941E4,2.7889164E4,-1.3738473E4,2.2890387E4,-3.9547164E4,-7.2176885E3,-2.8236072E4,2.7111963E4,4.9623676E4,-6.9167627E3],"split_indices":[5,24,24,3,6,22,4,22,24,5,22,3,0,4,0,24,4,4,0,5,0,6,3,1,0,5,3,3,5,0,0,4,4,0,4,5,2,16,3,5,24,5,5,0,3,3,0,24,0,2,3,0,0,24,24,6,24,3,24,0,0,0,0,0,0,0,0,0,0,0,0,0,0,0,0,0,0,0,0,0,0,0,0,0,0,0,0,0,0,0,0,0,0,0,0,0,0,0,0,0,0,0,0,0,0,0,0,0,0,0,0,0,0,0,0,0,0],"split_type":[0,0,0,0,0,0,0,0,0,0,0,0,0,0,0,0,0,0,0,0,0,0,0,0,0,0,0,0,0,0,0,0,0,0,0,0,0,0,0,0,0,0,0,0,0,0,0,0,0,0,0,0,0,0,0,0,0,0,0,0,0,0,0,0,0,0,0,0,0,0,0,0,0,0,0,0,0,0,0,0,0,0,0,0,0,0,0,0,0,0,0,0,0,0,0,0,0,0,0,0,0,0,0,0,0,0,0,0,0,0,0,0,0,0,0,0,0],"sum_hessian":[5.733E3,5.099E3,6.34E2,1.605E3,3.494E3,4.89E2,1.45E2,1.106E3,4.99E2,1.588E3,1.906E3,1.42E2,3.47E2,1.38E2,7E0,8.56E2,2.5E2,1.87E2,3.12E2,1.349E3,2.39E2,1.574E3,3.32E2,1.4E1,1.28E2,4.6E1,3.01E2,1E2,3.8E1,4E0,3E0,1.76E2,6.8E2,2.9E1,2.21E2,1.84E2,3E0,2.94E2,1.8E1,1.152E3,1.97E2,1.25E2,1.14E2,1.13E2,1.461E3,3.11E2,2.1E1,1E1,4E0,8.3E1,4.5E1,1E1,3.6E1,1.6E1,2.85E2,7.7E1,2.3E1,3.5E1,3E0,3E0,1E0,2E0,1E0,3.2E1,1.44E2,7E0,6.73E2,2E0,2.7E1,1.12E2,1.09E2,1.04E2,8E1,2E0,1E0,2.71E2,2.3E1,1.4E1,4E0,2.19E2,9.33E2,6.9E1,1.28E2,1.16E2,9E0,1E2,1.4E1,8.6E1,2.7E1,1.43E3,3.1E1,2.52E2,5.9E1,4E0,1.7E1,4E0,6E0,6E0,7.7E1,3.5E1,1E1,8E0,2E0,8E0,2.8E1,1E1,6E0,2.07E2,7.8E1,1.6E1,6.1E1,8E0,1.5E1,3.1E1,4E0,2E0,1E0],"tree_param":{"num_deleted":"0","num_feature":"25","num_nodes":"117","size_leaf_vector":"1"}},{"base_weights":[1.0474309E3,-7.580834E3,9.178071E4,-1.5081969E4,2.3943377E4,1.166836E5,-1.5088211E4,-2.140124E4,1.0340444E4,1.003312E4,8.610701E4,2.377848E5,9.968742E4,-2.4475424E4,1.3009647E5,-2.3724963E4,2.246697E4,1.5698792E4,-3.2014744E4,1.2304027E4,-3.644023E5,1.7051564E5,4.285951E4,9.316165E4,2.9297228E5,4.6960957E4,1.539533E5,2.3365504E4,-8.426337E4,-2.0066334E4,-4.7344895E4,1.3920404E4,1.043918E5,2.3557271E4,-1.8059338E4,-8.5255055E4,-1.758289E4,3.556995E4,-9.723005E3,-3.2675195E4,-1.2031327E5,2.0060655E5,-5.767372E4,1.6847908E4,2.616617E5,1.27320336E5,9.5555E3,4.5352178E5,2.1061162E5,1.1090397E4,1.2345853E5,1.9840284E5,-6.137528E3,-5.423693E4,7.5987E4,-1.2706532E5,8.6795484E4,-8.048183E3,-2.5906416E3,-2.05068E4,-1.1472996E4,2.0022338E4,-7.445964E2,6.3954918E4,1.510884E4,4.527767E3,1.725038E4,-2.61252E4,-2.5809478E3,6.8328E2,-4.712392E4,-1.599373E3,-2.1437816E4,9.620694E3,1.1198215E5,-1.4245598E3,-3.838595E4,6.431865E4,-3.296013E4,2.3537502E3,-2.4246363E4,1.6576012E4,-1.5810935E4,1.4185256E5,-1.905665E4,-1.2259566E4,2.2557162E4,1.5617592E5,3.0346201E4,-3.5899736E3,8.935039E4,2.1005195E4,-1.8829887E4,1.1298243E5,1.6859348E4,3.6683914E4,8.353205E4,-3.7799812E4,8.657718E3,-2.1711094E4,2.5419377E4,2.8965981E3,5.572056E4,-7.888375E4,-2.4629494E4,2.9590832E4,-1.1894156E3],"categories":[],"categories_nodes":[],"categories_segments":[],"categories_sizes":[],"default_left":[0,0,0,0,0,0,0,0,0,0,0,0,0,0,0,0,0,0,0,0,0,0,0,0,0,0,0,0,0,0,0,0,0,0,0,0,0,0,0,0,0,0,0,0,0,0,0,0,0,0,0,0,0,0,0,0,0,0,0,0,0,0,0,0,0,0,0,0,0,0,0,0,0,0,0,0,0,0,0,0,0,0,0,0,0,0,0,0,0,0,0,0,0,0,0,0,0,0,0,0,0,0,0,0,0,0,0],"id":8,"left_children":[1,3,5,7,9,11,13,15,17,19,21,23,25,27,-1,29,31,33,35,37,39,41,43,45,47,49,51,53,55,57,59,61,63,65,67,69,71,73,75,-1,-1,77,79,81,83,-1,85,87,89,91,93,95,97,99,101,103,105,-1,-1,-1,-1,-1,-1,-1,-1,-1,-1,-1,-1,-1,-1,-1,-1,-1,-1,-1,-1,-1,-1,-1,-1,-1,-1,-1,-1,-1,-1,-1,-1,-1,-1,-1,-1,-1,-1,-1,-1,-1,-1,-1,-1,-1,-1,-1,-1,-1,-1],"loss_changes":[4.489677E12,1.2387405E12,1.3271103E12,6.799361E11,8.699012E11,8.078324E11,4.1079633E11,3.459994E11,1.9182466E11,7.051375E11,6.6437684E11,3.6379427E11,1.0113741E12,2.7083809E11,0E0,2.7722475E11,1.1827691E11,1.991258E11,7.149484E10,4.2057885E11,3.126657E9,4.3728778E11,6.956332E11,4.1134942E11,3.672868E11,4.980407E11,1.246512E12,2.2054979E11,3.1853812E11,2.1531171E11,7.9807775E10,1.35321895E11,8.330964E10,1.738265E11,9.193554E10,1.2609785E11,4.9784795E10,4.5976407E11,2.4758439E11,0E0,0E0,2.5901584E11,1.2767017E10,2.9940842E11,9.227771E11,0E0,4.6094434E10,2.0728591E11,4.8891245E11,5.4841305E11,9.6640264E11,8.0065017E11,1.6723167E11,6.1571207E10,2.3115966E11,1.861573E11,1.0062979E10,0E0,0E0,0E0,0E0,0E0,0E0,0E0,0E0,0E0,0E0,0E0,0E0,0E0,0E0,0E0,0E0,0E0,0E0,0E0,0E0,0E0,0E0,0E0,0E0,0E0,0E0,0E0,0E0,0E0,0E0,0E0,0E0,0E0,0E0,0E0,0E0,0E0,0E0,0E0,0E0,0E0,0E0,0E0,0E0,0E0,0E0,0E0,0E0,0E0,0E0],"parents":[2147483647,0,0,1,1,2,2,3,3,4,4,5,5,6,6,7,7,8,8,9,9,10,10,11,11,12,12,13,13,15,15,16,16,17,17,18,18,19,19,20,20,21,21,22,22,23,23,24,24,25,25,26,26,27,27,28,28,29,29,30,30,31,31,32,32,33,33,34,34,35,35,36,36,37,37,38,38,41,41,42,42,43,43,44,44,46,46,47,47,48,48,49,49,50,50,51,51,52,52,53,53,54,54,55,55,56,56],"right_children":[2,4,6,8,10,12,14,16,18,20,22,24,26,28,-1,30,32,34,36,38,40,42,44,46,48,50,52,54,56,58,60,62,64,66,68,70,72,74,76,-1,-1,78,80,82,84,-1,86,88,90,92,94,96,98,100,102,104,106,-1,-1,-1,-1,-1,-1,-1,-1,-1,-1,-1,-1,-1,-1,-1,-1,-1,-1,-1,-1,-1,-1,-1,-1,-1,-1,-1,-1,-1,-1,-1,-1,-1,-1,-1,-1,-1,-1,-1,-1,-1,-1,-1,-1,-1,-1,-1,-1,-1,-1],"split_conditions":[1.577E2,1E0,8.57E4,1E0,1E0,1.5092E4,4.8E2,1E0,1E1,2.53E2,4.5652E4,8E3,1.991E3,1E0,1.3009647E5,9.9E4,2.43E1,2E0,1.408E1,4E4,2.9E3,2.156E1,3.4E2,1.956E3,3E0,5.5418E4,1.1E1,1.416E1,1.8908E2,1.147E2,9E0,1.37E1,6E0,1.582E3,4E0,1.207E2,1.2E1,2.61E1,1.794E3,-3.2675195E4,-1.2031327E5,1.5287E2,3E4,2E0,1.4992E2,1.27320336E5,1.997E3,1.999E3,1.6767E2,6E0,1.474E1,1E0,4.0965E4,1.38175E5,1.985E3,9E0,1.08818E5,-8.048183E3,-2.5906416E3,-2.05068E4,-1.1472996E4,2.0022338E4,-7.445964E2,6.3954918E4,1.510884E4,4.527767E3,1.725038E4,-2.61252E4,-2.5809478E3,6.8328E2,-4.712392E4,-1.599373E3,-2.1437816E4,9.620694E3,1.1198215E5,-1.4245598E3,-3.838595E4,6.431865E4,-3.296013E4,2.3537502E3,-2.4246363E4,1.6576012E4,-1.5810935E4,1.4185256E5,-1.905665E4,-1.2259566E4,2.2557162E4,1.5617592E5,3.0346201E4,-3.5899736E3,8.935039E4,2.1005195E4,-1.8829887E4,1.1298243E5,1.6859348E4,3.6683914E4,8.353205E4,-3.7799812E4,8.657718E3,-2.1711094E4,2.5419377E4,2.8965981E3,5.572056E4,-7.888375E4,-2.4629494E4,2.9590832E4,-1.1894156E3],"split_indices":[5,22,0,19,8,0,6,16,24,6,0,0,3,20,0,0,4,1,4,0,0,4,6,3,24,0,24,4,5,6,24,4,24,3,24,5,24,4,3,0,0,5,0,1,5,0,3,3,5,24,4,20,0,0,3,24,0,0,0,0,0,0,0,0,0,0,0,0,0,0,0,0,0,0,0,0,0,0,0,0,0,0,0,0,0,0,0,0,0,0,0,0,0,0,0,0,0,0,0,0,0,0,0,0,0,0,0],"split_type":[0,0,0,0,0,0,0,0,0,0,0,0,0,0,0,0,0,0,0,0,0,0,0,0,0,0,0,0,0,0,0,0,0,0,0,0,0,0,0,0,0,0,0,0,0,0,0,0,0,0,0,0,0,0,0,0,0,0,0,0,0,0,0,0,0,0,0,0,0,0,0,0,0,0,0,0,0,0,0,0,0,0,0,0,0,0,0,0,0,0,0,0,0,0,0,0,0,0,0,0,0,0,0,0,0,0,0],"sum_hessian":[5.733E3,5.236E3,4.97E2,4.23E3,1.006E3,4.03E2,9.4E1,3.388E3,8.42E2,8.23E2,1.83E2,4.8E1,3.55E2,9.3E1,1E0,3.218E3,1.7E2,7.48E2,9.4E1,8.19E2,4E0,6.1E1,1.22E2,1.4E1,3.4E1,1.81E2,1.74E2,5.2E1,4.1E1,2.788E3,4.3E2,1.55E2,1.5E1,6.07E2,1.41E2,1.9E1,7.5E1,3.98E2,4.21E2,1E0,3E0,5.4E1,7E0,1.1E2,1.2E1,2E0,1.2E1,1E1,2.4E1,1.24E2,5.7E1,1.36E2,3.8E1,2.1E1,3.1E1,3.3E1,8E0,1.751E3,1.037E3,1.28E2,3.02E2,3.6E1,1.19E2,4E0,1.1E1,4.87E2,1.2E2,1.6E1,1.25E2,9E0,1E1,6.2E1,1.3E1,3.95E2,3E0,4.05E2,1.6E1,5.2E1,2E0,2E0,5E0,7.1E1,3.9E1,7E0,5E0,7E0,5E0,8E0,2E0,7E0,1.7E1,6.9E1,5.5E1,1.1E1,4.6E1,7.1E1,6.5E1,8E0,3E1,1.9E1,2E0,2E1,1.1E1,7E0,2.6E1,7E0,1E0],"tree_param":{"num_deleted":"0","num_feature":"25","num_nodes":"107","size_leaf_vector":"1"}},{"base_weights":[8.712296E2,-6.8268315E3,5.3649207E4,2.2197037E4,-1.2862484E4,9.8535086E4,2.0097795E4,1.8976566E4,2.696192E5,1.7468885E3,-1.7220213E4,6.938941E4,2.3346325E5,8.446897E4,4.6577866E3,7.321531E3,5.718469E4,3.228071E5,-3.9339E4,-7.115449E3,2.8252432E4,-1.832152E4,3.960788E4,1.3706505E5,4.5886914E4,2.7487134E5,-1.5051492E5,5.3734195E4,5.408907E5,6.833034E4,-1.4001698E4,-4.3396188E4,1.2896667E4,1.8033647E5,4.6165055E4,-1.6405688E3,1.0796694E5,-9.577959E3,4.9431125E4,3.9320164E4,-6.393016E4,-1.7602938E4,-1.23936055E5,7.5078125E4,-4.9297613E4,1.1067216E5,4.369238E5,-2.9879195E4,7.258751E4,3.512134E5,1.699823E5,-7.032223E4,-4.9966812E4,2.249696E4,3.2034322E5,1.9771555E5,7.27298E4,-9.64504E4,1.1313267E5,-2.6552463E4,3.999561E4,-1.5770708E4,-5.526442E3,2.2366018E3,1.7019348E4,8.2733124E2,7.824101E4,1.5968976E4,-2.9136514E4,-3.6702645E4,-2.6211597E3,7.370589E4,2.9365657E3,3.7486098E4,6.7352295E3,-4.4885684E4,6.0613315E3,-4.6353706E3,-1.3127723E4,-6.2407074E4,-2.2929844E4,3.2868375E4,-4.6735977E3,4.8801535E4,-2.14006E4,3.9371457E4,-4.5008453E4,-1.0714388E4,1.6920362E5,-2.099643E4,4.952163E4,1.1788735E5,1.6706518E4,1.29004914E5,7.627492E4,-1.4408454E4,7.492571E4,1.9915164E4,-3.3263504E4,8.101305E4,-4.14002E3,1.6881277E5,1.871454E4,3.614148E4,-4.546164E4,7.150171E4,5.8689893E3,1.2952918E4,-1.2849068E4,2.585931E4,-2.2066732E4],"categories":[],"categories_nodes":[],"categories_segments":[],"categories_sizes":[],"default_left":[0,0,0,0,0,0,0,0,0,0,0,0,0,0,0,0,0,0,0,0,0,0,0,0,0,0,0,0,0,0,0,0,0,0,0,0,0,0,0,0,0,0,0,0,0,0,0,0,0,0,0,0,0,0,0,0,0,0,0,0,0,0,0,0,0,0,0,0,0,0,0,0,0,0,0,0,0,0,0,0,0,0,0,0,0,0,0,0,0,0,0,0,0,0,0,0,0,0,0,0,0,0,0,0,0,0,0,0,0,0,0],"id":9,"left_children":[1,3,5,7,9,11,13,15,17,19,21,23,25,27,29,31,33,35,-1,37,39,41,43,45,47,49,51,53,55,57,59,61,63,65,67,-1,-1,69,71,73,75,77,79,81,83,85,87,89,91,93,95,-1,97,99,101,-1,-1,103,105,107,109,-1,-1,-1,-1,-1,-1,-1,-1,-1,-1,-1,-1,-1,-1,-1,-1,-1,-1,-1,-1,-1,-1,-1,-1,-1,-1,-1,-1,-1,-1,-1,-1,-1,-1,-1,-1,-1,-1,-1,-1,-1,-1,-1,-1,-1,-1,-1,-1,-1,-1],"loss_changes":[2.330022E12,8.7705145E11,1.0973884E12,6.8173863E11,2.638524E11,1.2107627E12,4.1604704E11,3.7899144E11,2.7679483E11,2.2406175E11,2.0049756E11,4.0407138E11,9.158622E11,1.107205E12,4.0372168E11,1.8548351E11,2.6173525E11,1.2370149E11,0E0,1.0003469E11,2.4635403E11,2.3551423E11,1.9606464E11,4.7397772E11,3.926079E11,3.406716E11,3.889882E10,6.340591E11,1.6555049E10,5.79369E11,1.7929904E11,1.3922386E10,1.4030257E11,2.2790796E11,1.9143321E11,0E0,0E0,6.3969157E10,2.3099685E11,3.06336E11,1.9046713E11,1.7446797E11,6.7983213E10,1.3925651E11,9.5688016E10,3.5210677E11,3.2047746E11,4.1033643E11,7.5231547E11,1.0461748E11,4.119815E11,0E0,3.5708924E10,6.326908E11,4.6506574E11,0E0,0E0,2.2140417E11,7.099815E11,2.4474562E11,2.6865589E11,0E0,0E0,0E0,0E0,0E0,0E0,0E0,0E0,0E0,0E0,0E0,0E0,0E0,0E0,0E0,0E0,0E0,0E0,0E0,0E0,0E0,0E0,0E0,0E0,0E0,0E0,0E0,0E0,0E0,0E0,0E0,0E0,0E0,0E0,0E0,0E0,0E0,0E0,0E0,0E0,0E0,0E0,0E0,0E0,0E0,0E0,0E0,0E0,0E0,0E0],"parents":[2147483647,0,0,1,1,2,2,3,3,4,4,5,5,6,6,7,7,8,8,9,9,10,10,11,11,12,12,13,13,14,14,15,15,16,16,17,17,19,19,20,20,21,21,22,22,23,23,24,24,25,25,26,26,27,27,28,28,29,29,30,30,31,31,32,32,33,33,34,34,37,37,38,38,39,39,40,40,41,41,42,42,43,43,44,44,45,45,46,46,47,47,48,48,49,49,50,50,52,52,53,53,54,54,57,57,58,58,59,59,60,60],"right_children":[2,4,6,8,10,12,14,16,18,20,22,24,26,28,30,32,34,36,-1,38,40,42,44,46,48,50,52,54,56,58,60,62,64,66,68,-1,-1,70,72,74,76,78,80,82,84,86,88,90,92,94,96,-1,98,100,102,-1,-1,104,106,108,110,-1,-1,-1,-1,-1,-1,-1,-1,-1,-1,-1,-1,-1,-1,-1,-1,-1,-1,-1,-1,-1,-1,-1,-1,-1,-1,-1,-1,-1,-1,-1,-1,-1,-1,-1,-1,-1,-1,-1,-1,-1,-1,-1,-1,-1,-1,-1,-1,-1,-1],"split_conditions":[1.95E3,2.3899E4,7E0,1.6077E2,6E0,1.77E1,4.7584E4,1.248E3,2.53E2,1.1342E2,2.5988E2,1.396E1,2.254E1,4.5652E4,1.969E3,9.36E2,2E0,1E0,-3.9339E4,2.52E1,2.53E2,1.5287E2,1.969E1,1.37E1,1.474E1,4.4154E4,2.6E4,1.8908E2,6E0,5.7459E4,1.85E2,2.207E1,1E0,1E0,1.4794E2,-1.6405688E3,1.0796694E5,2E0,3.0033E4,1.1398E2,5E0,1.2E5,4.9124E4,2E0,4.03E4,2E0,1.995E3,5.5418E4,1.499E1,1.92E1,4.9124E4,-7.032223E4,4.5652E4,1.324E1,2E0,1.9771555E5,7.27298E4,1.41E2,1E1,1.3678E2,1.965E1,-1.5770708E4,-5.526442E3,2.2366018E3,1.7019348E4,8.2733124E2,7.824101E4,1.5968976E4,-2.9136514E4,-3.6702645E4,-2.6211597E3,7.370589E4,2.9365657E3,3.7486098E4,6.7352295E3,-4.4885684E4,6.0613315E3,-4.6353706E3,-1.3127723E4,-6.2407074E4,-2.2929844E4,3.2868375E4,-4.6735977E3,4.8801535E4,-2.14006E4,3.9371457E4,-4.5008453E4,-1.0714388E4,1.6920362E5,-2.099643E4,4.952163E4,1.1788735E5,1.6706518E4,1.29004914E5,7.627492E4,-1.4408454E4,7.492571E4,1.9915164E4,-3.3263504E4,8.101305E4,-4.14002E3,1.6881277E5,1.871454E4,3.614148E4,-4.546164E4,7.150171E4,5.8689893E3,1.2952918E4,-1.2849068E4,2.585931E4,-2.2066732E4],"split_indices":[3,0,24,5,24,4,0,3,6,5,6,4,4,0,3,3,24,22,0,4,6,5,4,4,4,0,0,5,2,0,5,4,20,19,5,0,0,24,0,5,24,0,0,1,0,1,3,0,4,4,0,0,0,4,1,0,0,5,24,5,4,0,0,0,0,0,0,0,0,0,0,0,0,0,0,0,0,0,0,0,0,0,0,0,0,0,0,0,0,0,0,0,0,0,0,0,0,0,0,0,0,0,0,0,0,0,0,0,0,0,0],"split_type":[0,0,0,0,0,0,0,0,0,0,0,0,0,0,0,0,0,0,0,0,0,0,0,0,0,0,0,0,0,0,0,0,0,0,0,0,0,0,0,0,0,0,0,0,0,0,0,0,0,0,0,0,0,0,0,0,0,0,0,0,0,0,0,0,0,0,0,0,0,0,0,0,0,0,0,0,0,0,0,0,0,0,0,0,0,0,0,0,0,0,0,0,0,0,0,0,0,0,0,0,0,0,0,0,0,0,0,0,0,0,0],"sum_hessian":[5.733E3,5.004E3,7.29E2,8.61E2,4.143E3,3.11E2,4.18E2,8.51E2,1E1,9.52E2,3.191E3,2.57E2,5.4E1,8E1,3.38E2,6.53E2,1.98E2,9E0,1E0,7.14E2,2.38E2,3.131E3,6E1,6.5E1,1.92E2,4.9E1,5E0,7.6E1,4E0,7.6E1,2.62E2,6.4E1,5.89E2,1.5E1,1.83E2,1E0,8E0,6.85E2,2.9E1,2.13E2,2.5E1,3.111E3,2E1,4.3E1,1.7E1,6.1E1,4E0,5E1,1.42E2,2.7E1,2.2E1,2E0,3E0,6.9E1,7E0,2E0,2E0,1.6E1,6E1,2.13E2,4.9E1,4.6E1,1.8E1,5.25E2,6.4E1,5E0,1E1,1.75E2,8E0,4E0,6.81E2,4E0,2.5E1,3.4E1,1.79E2,1.2E1,1.3E1,2.876E3,2.35E2,6E0,1.4E1,3.1E1,1.2E1,1E0,1.6E1,5.7E1,4E0,1E0,3E0,4.2E1,8E0,6E0,1.36E2,1.3E1,1.4E1,6E0,1.6E1,1E0,2E0,8E0,6.1E1,3E0,4E0,3E0,1.3E1,2.5E1,3.5E1,4E1,1.73E2,3.5E1,1.4E1],"tree_param":{"num_deleted":"0","num_feature":"25","num_nodes":"111","size_leaf_vector":"1"}},{"base_weights":[8.2453754E2,-3.8825437E3,5.032285E4,-8.1763345E3,1.4162055E4,9.154437E4,1.994763E4,1.1703512E4,-1.1199655E4,1.1377587E4,1.383131E5,2.0617742E5,7.964822E4,-6.2387137E4,3.5451547E4,1.25191375E5,9.408303E3,-1.5688246E4,-3.086715E2,1.3716721E4,-6.9144086E4,1.16835336E5,4.1540094E4,4.245767E5,7.252938E4,-1.3375375E4,-3.335419E5,1.2616946E5,3.0510506E4,6.134123E4,5.6862992E4,1.2477144E4,-6.1317246E4,-1.1266575E4,-2.5664445E4,-5.2010207E4,3.2412935E3,5.3360145E4,9.397784E3,-3.387719E4,-5.1031555E4,1.5266439E5,-7.4199766E4,1.5101833E5,2.8218525E4,7.9164945E4,-1.6074445E5,-4.165055E4,1.9288097E5,-1.1881328E5,-3.5457215E4,6.146412E4,-1.7707303E4,3.26748E4,-3.361611E4,1.7694764E3,1.7502098E4,-2.3064965E4,2.0425076E4,-7.6535234E3,-2.4037688E3,-1.4749872E4,-6.9259062E3,2.928448E3,-2.6876266E4,7.5796978E3,-3.1427634E3,1.2795852E4,1.091793E5,-6.411527E4,3.12631E3,-3.4367207E4,-6.0243926E3,-6.9991006E3,6.1884453E4,-5.161447E4,1.1546595E4,6.556525E4,1.712434E4,-6.004655E4,5.44635E3,1.2581774E4,-2.2624059E4,1.152528E5,-1.88123E4,9.562436E3,4.2775957E4,-7.5958584E3,1.04676266E5],"categories":[],"categories_nodes":[],"categories_segments":[],"categories_sizes":[],"default_left":[0,0,0,0,0,0,0,0,0,0,0,0,0,0,0,0,0,0,0,0,0,0,0,0,0,0,0,0,0,0,0,0,0,0,0,0,0,0,0,0,0,0,0,0,0,0,0,0,0,0,0,0,0,0,0,0,0,0,0,0,0,0,0,0,0,0,0,0,0,0,0,0,0,0,0,0,0,0,0,0,0,0,0,0,0,0,0,0,0],"id":10,"left_children":[1,3,5,7,9,11,13,15,17,19,21,-1,23,25,27,29,31,33,35,37,39,-1,41,43,45,47,49,-1,51,53,-1,55,57,59,61,63,65,67,69,71,-1,73,75,-1,-1,77,79,81,83,-1,-1,85,87,-1,-1,-1,-1,-1,-1,-1,-1,-1,-1,-1,-1,-1,-1,-1,-1,-1,-1,-1,-1,-1,-1,-1,-1,-1,-1,-1,-1,-1,-1,-1,-1,-1,-1,-1,-1],"loss_changes":[1.3361748E12,4.0587716E11,6.2172614E11,2.544275E11,3.4654074E11,1.4405545E12,3.6984704E11,1.4442961E11,1.7955039E11,1.8666249E11,5.1849645E11,0E0,4.799478E11,6.068684E11,4.4956362E11,3.3570849E10,1.1992305E11,1.1444486E11,1.9710553E11,1.6369605E11,9.393366E10,0E0,2.2997333E11,5.6851562E10,3.3004565E11,2.4131099E11,4.7410905E10,0E0,3.6078453E11,6.9949E10,0E0,1.5866695E11,5.1562193E10,8.34181E10,4.7215575E10,1.6103842E11,3.0388722E11,2.970629E11,1.9993713E11,2.2186732E10,0E0,8.973959E10,1.058594E11,0E0,0E0,6.0315913E11,4.593692E10,1.04763425E11,2.685549E11,0E0,0E0,3.4830772E11,2.7396583E11,0E0,0E0,0E0,0E0,0E0,0E0,0E0,0E0,0E0,0E0,0E0,0E0,0E0,0E0,0E0,0E0,0E0,0E0,0E0,0E0,0E0,0E0,0E0,0E0,0E0,0E0,0E0,0E0,0E0,0E0,0E0,0E0,0E0,0E0,0E0,0E0],"parents":[2147483647,0,0,1,1,2,2,3,3,4,4,5,5,6,6,7,7,8,8,9,9,10,10,12,12,13,13,14,14,15,15,16,16,17,17,18,18,19,19,20,20,22,22,23,23,24,24,25,25,26,26,28,28,29,29,31,31,32,32,33,33,34,34,35,35,36,36,37,37,38,38,39,39,41,41,42,42,45,45,46,46,47,47,48,48,51,51,52,52],"right_children":[2,4,6,8,10,12,14,16,18,20,22,-1,24,26,28,30,32,34,36,38,40,-1,42,44,46,48,50,-1,52,54,-1,56,58,60,62,64,66,68,70,72,-1,74,76,-1,-1,78,80,82,84,-1,-1,86,88,-1,-1,-1,-1,-1,-1,-1,-1,-1,-1,-1,-1,-1,-1,-1,-1,-1,-1,-1,-1,-1,-1,-1,-1,-1,-1,-1,-1,-1,-1,-1,-1,-1,-1,-1,-1],"split_conditions":[1.577E2,1E0,4.7584E4,4E0,3.4E2,1.6E2,5.2858E4,1.462E1,1.716E2,3E0,1.969E3,2.0617742E5,5E0,6E0,5.3338E4,2.1298E4,2.54E2,7E4,1.199E3,3E0,1E0,1.16835336E5,5E0,2E0,4.5E2,1.934E1,5.0629E4,1.2616946E5,8.57E4,1.0711E4,5.6862992E4,1.482E3,2.184E3,6.704E1,1E0,1.047E3,8.876E1,2.61E1,5E0,2.0739E4,-5.1031555E4,2.9336E4,2E0,1.5101833E5,2.8218525E4,1.299E1,3.3222E4,1E0,2.038E1,-1.1881328E5,-3.5457215E4,7.6567E4,4.8E2,3.26748E4,-3.361611E4,1.7694764E3,1.7502098E4,-2.3064965E4,2.0425076E4,-7.6535234E3,-2.4037688E3,-1.4749872E4,-6.9259062E3,2.928448E3,-2.6876266E4,7.5796978E3,-3.1427634E3,1.2795852E4,1.091793E5,-6.411527E4,3.12631E3,-3.4367207E4,-6.0243926E3,-6.9991006E3,6.1884453E4,-5.161447E4,1.1546595E4,6.556525E4,1.712434E4,-6.004655E4,5.44635E3,1.2581774E4,-2.2624059E4,1.152528E5,-1.88123E4,9.562436E3,4.2775957E4,-7.5958584E3,1.04676266E5],"split_indices":[5,22,0,24,6,5,0,4,6,1,3,0,2,2,0,0,6,0,3,24,19,0,24,1,6,4,0,0,0,0,0,3,3,5,11,3,5,4,2,0,0,0,1,0,0,4,0,22,4,0,0,0,6,0,0,0,0,0,0,0,0,0,0,0,0,0,0,0,0,0,0,0,0,0,0,0,0,0,0,0,0,0,0,0,0,0,0,0,0],"split_type":[0,0,0,0,0,0,0,0,0,0,0,0,0,0,0,0,0,0,0,0,0,0,0,0,0,0,0,0,0,0,0,0,0,0,0,0,0,0,0,0,0,0,0,0,0,0,0,0,0,0,0,0,0,0,0,0,0,0,0,0,0,0,0,0,0,0,0,0,0,0,0,0,0,0,0,0,0,0,0,0,0,0,0,0,0,0,0,0,0],"sum_hessian":[5.733E3,5.236E3,4.97E2,4.23E3,1.006E3,2.1E2,2.87E2,5.58E2,3.672E3,9.85E2,2.1E1,3E0,2.07E2,4.5E1,2.42E2,1E1,5.48E2,2.6E3,1.072E3,9.58E2,2.7E1,5E0,1.6E1,3E0,2.04E2,3.9E1,6E0,2E0,2.4E2,6E0,4E0,5.26E2,2.2E1,1.803E3,7.97E2,6.8E1,1.004E3,9.3E1,8.65E2,2.1E1,6E0,8E0,8E0,2E0,1E0,1.99E2,5E0,3.5E1,4E0,4E0,2E0,1.46E2,9.4E1,5E0,1E0,4.61E2,6.5E1,2E1,2E0,3.34E2,1.469E3,7.7E1,7.2E2,2.6E1,4.2E1,3.85E2,6.19E2,9.1E1,2E0,3E0,8.62E2,2E0,1.9E1,2E0,6E0,4E0,4E0,2.6E1,1.73E2,4E0,1E0,1E1,2.5E1,2E0,2E0,1.08E2,3.8E1,9.3E1,1E0],"tree_param":{"num_deleted":"0","num_feature":"25","num_nodes":"89","size_leaf_vector":"1"}},{"base_weights":[7.068822E2,-5.330155E3,2.4135123E4,-4.5887427E3,-9.837351E4,4.2329254E4,4.146663E3,9.45889E3,-8.151912E3,-2.2460777E5,1.3844281E4,3.5987758E4,1.2798855E5,1.2385787E4,-3.395956E4,8.513725E3,1.311428E5,-6.651186E3,-3.7928473E4,-1.3729275E4,-2.3292522E5,5.7813605E4,-7.6072125E4,3.0389943E4,2.0720964E5,3.0442912E5,4.726468E4,3.012819E4,-1.6352703E4,1.9967552E5,-4.3243895E4,5.6023055E4,3.957193E3,-8.90141E3,1.5077446E4,-8.955901E4,-3.2096324E4,-2.4205528E5,-1.4396138E4,3.7970977E4,4.736517E4,-9.14276E4,2.4091125E3,3.3482004E4,-4.054578E5,2.6366134E5,-5.6286625E4,3.6035278E5,-2.1007188E3,-7.35364E4,1.4396764E5,8.46521E3,1.03652086E5,-5.0402374E2,-1.0067232E5,8.897483E4,2.0553656E4,-1.5575856E4,-8.065449E4,-1.4941567E4,2.262932E4,8.704461E2,1.3282081E5,-2.3575764E3,-1.3408404E4,1.1802245E4,-6.3419116E2,-1.1050064E4,-3.2537547E4,-8.881717E3,-4.50236E4,-7.486043E4,-2.0601375E4,2.7496248E4,3.8101821E3,-1.0812577E4,-4.0439797E4,9.425574E3,7.612873E4,-1.4787858E5,-2.1456826E4,-5.9342505E2,9.140433E4,-4.1957875E4,2.9164838E4,1.5121275E4,1.2708894E5,1.715854E4,-1.8103861E4,3.4164E4,-4.050081E4,9.950523E4,-1.792355E4,-2.9913373E4,6.8098003E3,1.6887456E5,2.4041145E4,3.5736918E4,-1.6351902E3,-5.1085582E4,1.2497857E4,-9.65811E3,6.665403E3,-3.5015035E4,1.2843084E4],"categories":[],"categories_nodes":[],"categories_segments":[],"categories_sizes":[],"default_left":[0,0,0,0,0,0,0,0,0,0,0,0,0,0,0,0,0,0,0,0,0,0,0,0,0,0,0,0,0,0,0,0,0,0,0,0,0,0,0,0,0,0,0,0,0,0,0,0,0,0,0,0,0,0,0,0,0,0,0,0,0,0,0,0,0,0,0,0,0,0,0,0,0,0,0,0,0,0,0,0,0,0,0,0,0,0,0,0,0,0,0,0,0,0,0,0,0,0,0,0,0,0,0,0,0],"id":11,"left_children":[1,3,5,7,9,11,13,15,17,19,21,23,25,27,29,31,-1,33,35,-1,37,39,41,43,45,47,49,51,53,55,57,59,61,63,65,67,69,71,-1,73,-1,75,-1,77,79,81,83,85,87,89,91,93,95,97,99,-1,-1,101,103,-1,-1,-1,-1,-1,-1,-1,-1,-1,-1,-1,-1,-1,-1,-1,-1,-1,-1,-1,-1,-1,-1,-1,-1,-1,-1,-1,-1,-1,-1,-1,-1,-1,-1,-1,-1,-1,-1,-1,-1,-1,-1,-1,-1,-1,-1],"loss_changes":[8.111293E11,3.1411333E11,4.271398E11,2.2657191E11,5.130757E11,3.2946704E11,1.7655325E11,3.6655468E11,1.610659E11,1.4628225E10,8.346928E10,5.4386354E11,5.8381586E11,2.3606182E11,2.2554947E11,1.9785544E11,0E0,1.6823275E11,4.9218716E10,0E0,1.5400501E10,2.1804204E10,9.77424E9,7.642262E11,2.8258723E11,2.236066E11,3.6104156E11,4.546481E11,2.36484E11,3.0523163E10,9.914627E10,1.6807015E11,3.8596864E11,1.15956695E11,1.34813475E11,1.2945318E10,4.169081E10,2.3164355E9,0E0,1.6471656E10,0E0,9.554604E9,0E0,2.4383803E11,8.158262E10,1.6404972E11,6.491132E10,1.9438594E11,1.3812654E10,1.7665117E11,6.699006E11,3.4409834E11,6.5686005E11,8.941157E10,2.8452192E11,0E0,0E0,3.6514275E10,1.8754598E11,0E0,0E0,0E0,0E0,0E0,0E0,0E0,0E0,0E0,0E0,0E0,0E0,0E0,0E0,0E0,0E0,0E0,0E0,0E0,0E0,0E0,0E0,0E0,0E0,0E0,0E0,0E0,0E0,0E0,0E0,0E0,0E0,0E0,0E0,0E0,0E0,0E0,0E0,0E0,0E0,0E0,0E0,0E0,0E0,0E0,0E0],"parents":[2147483647,0,0,1,1,2,2,3,3,4,4,5,5,6,6,7,7,8,8,9,9,10,10,11,11,12,12,13,13,14,14,15,15,17,17,18,18,20,20,21,21,22,22,23,23,24,24,25,25,26,26,27,27,28,28,29,29,30,30,31,31,32,32,33,33,34,34,35,35,36,36,37,37,39,39,41,41,43,43,44,44,45,45,46,46,47,47,48,48,49,49,50,50,51,51,52,52,53,53,54,54,57,57,58,58],"right_children":[2,4,6,8,10,12,14,16,18,20,22,24,26,28,30,32,-1,34,36,-1,38,40,42,44,46,48,50,52,54,56,58,60,62,64,66,68,70,72,-1,74,-1,76,-1,78,80,82,84,86,88,90,92,94,96,98,100,-1,-1,102,104,-1,-1,-1,-1,-1,-1,-1,-1,-1,-1,-1,-1,-1,-1,-1,-1,-1,-1,-1,-1,-1,-1,-1,-1,-1,-1,-1,-1,-1,-1,-1,-1,-1,-1,-1,-1,-1,-1,-1,-1,-1,-1,-1,-1,-1,-1],"split_conditions":[2.196E2,2.15E2,6.4906E4,2.7153E4,1E0,1.8908E2,1.2E5,2.143E3,3E0,3.5922E4,7.1355E4,4.2E2,3.19E2,2E0,1.157E1,1.695E1,1.311428E5,2E2,1.482E1,-1.3729275E4,2E0,1.499E3,1.2E1,4.0011E2,5.6363E4,1.999E3,1.416E1,1.73E2,1.8104E2,1.52098E5,1.4E2,1.197E3,1.595E3,1.5E1,8.87E1,1.2E1,1.4751E2,1.01434E5,-1.4396138E4,3.2228E4,4.736517E4,7.7027E4,2.4091125E3,6.372E4,2E0,1E0,2E0,4E0,2.1298E4,1.5092E4,1.86E1,6.8336E4,1.7433E2,6.5881E4,8.3234E4,8.897483E4,2.0553656E4,2.5987E2,1.38175E5,-1.4941567E4,2.262932E4,8.704461E2,1.3282081E5,-2.3575764E3,-1.3408404E4,1.1802245E4,-6.3419116E2,-1.1050064E4,-3.2537547E4,-8.881717E3,-4.50236E4,-7.486043E4,-2.0601375E4,2.7496248E4,3.8101821E3,-1.0812577E4,-4.0439797E4,9.425574E3,7.612873E4,-1.4787858E5,-2.1456826E4,-5.9342505E2,9.140433E4,-4.1957875E4,2.9164838E4,1.5121275E4,1.2708894E5,1.715854E4,-1.8103861E4,3.4164E4,-4.050081E4,9.950523E4,-1.792355E4,-2.9913373E4,6.8098003E3,1.6887456E5,2.4041145E4,3.5736918E4,-1.6351902E3,-5.1085582E4,1.2497857E4,-9.65811E3,6.665403E3,-3.5015035E4,1.2843084E4],"split_indices":[6,6,0,0,19,5,0,3,1,0,0,6,6,1,4,4,0,6,4,0,1,3,24,6,0,3,4,5,5,0,5,3,3,24,5,24,5,0,0,0,0,0,0,0,1,22,1,24,0,0,4,0,5,0,0,0,0,6,0,0,0,0,0,0,0,0,0,0,0,0,0,0,0,0,0,0,0,0,0,0,0,0,0,0,0,0,0,0,0,0,0,0,0,0,0,0,0,0,0,0,0,0,0,0,0],"split_type":[0,0,0,0,0,0,0,0,0,0,0,0,0,0,0,0,0,0,0,0,0,0,0,0,0,0,0,0,0,0,0,0,0,0,0,0,0,0,0,0,0,0,0,0,0,0,0,0,0,0,0,0,0,0,0,0,0,0,0,0,0,0,0,0,0,0,0,0,0,0,0,0,0,0,0,0,0,0,0,0,0,0,0,0,0,0,0,0,0,0,0,0,0,0,0,0,0,0,0,0,0,0,0,0,0],"sum_hessian":[5.733E3,4.559E3,1.174E3,4.524E3,3.5E1,6.14E2,5.6E2,9.15E2,3.609E3,1.6E1,1.9E1,5.73E2,4.1E1,4.61E2,9.9E1,9.14E2,1E0,3.437E3,1.72E2,1E0,1.5E1,1.3E1,6E0,5.56E2,1.7E1,1.2E1,2.9E1,2.85E2,1.76E2,3E0,9.6E1,7.9E1,8.35E2,3.115E3,3.22E2,1.6E1,1.56E2,1.4E1,1E0,1.2E1,1E0,5E0,1E0,5.53E2,3E0,1.4E1,3E0,1E1,2E0,1.3E1,1.6E1,2.21E2,6.4E1,1.49E2,2.7E1,1E0,2E0,5.6E1,4E1,1.2E1,6.7E1,8.34E2,1E0,3.028E3,8.7E1,1.33E2,1.89E2,5E0,1.1E1,1.54E2,2E0,1.3E1,1E0,3E0,9E0,3E0,2E0,5.49E2,4E0,2E0,1E0,2E0,1.2E1,2E0,1E0,2E0,8E0,1E0,1E0,3E0,1E1,8E0,8E0,2.5E1,1.96E2,2E0,6.2E1,5E0,1.44E2,1.8E1,9E0,3.9E1,1.7E1,3.1E1,9E0],"tree_param":{"num_deleted":"0","num_feature":"25","num_nodes":"105","size_leaf_vector":"1"}},{"base_weights":[5.8848206E2,-4.869183E3,1.4778727E4,-2.105339E3,-2.1976408E4,5.7180035E4,1.0685905E4,-7.8292476E3,9.135047E3,-1.7599686E4,-1.13884016E5,5.2220867E4,1.1197568E5,-8.559915E3,2.0417293E4,-1.2060932E4,1.4435792E4,-4.2088758E4,1.3560972E4,7.9762734E4,-1.9915291E4,-6.0014215E4,-1.493876E5,6.7515234E4,-2.3877773E4,-4.464089E3,-1.2201674E5,2.5418545E4,-5.0466254E4,-6.8873916E3,-2.5497783E4,3.739337E4,4.628866E3,1.9463482E4,-7.463935E4,-1.3063836E4,2.4614703E4,3.7031344E4,8.888091E4,-2.5190502E4,2.034171E4,-9.230629E4,2.7646508E4,-4.626934E4,-1.2236719E4,7.840871E3,9.114672E4,-7.751805E4,2.7473076E4,7.496407E4,-1.197469E4,-2.2347353E5,-7.360899E4,2.3699115E4,1.9358202E5,-5.8581535E4,5.7010387E4,-4.998408E3,-1.2485451E2,-3.5150626E2,-9.342689E3,1.988843E4,-2.3259185E3,-1.577473E3,6.8328335E3,3.437821E2,1.46895625E4,-3.9590523E4,-1.2197604E4,-2.3280933E3,-2.8145928E4,7.10547E3,1.12897695E5,2.0146201E4,-4.4147684E4,-1.2110223E4,-3.2684197E3,-4.5088586E4,9.413545E3,-8.5835E3,-3.1925213E4,1.7291537E4,-9.349402E3,-2.1391822E4,1.4638208E4,3.0728633E4,-8.227848E3,1.3324253E4,-5.1287215E4,-1.7788184E4,3.3094613E4,2.5334656E4,-4.566411E4,-1.1252252E4,1.547613E3,-7.573981E4,-1.6125525E4,-9.97246E3,-4.6837625E4,6.8748687E3,1.0853993E5,7.183803E4,6.6017505E3,-3.903198E4,-1.2502317E4,5.938063E2,2.7911389E4],"categories":[],"categories_nodes":[],"categories_segments":[],"categories_sizes":[],"default_left":[0,0,0,0,0,0,0,0,0,0,0,0,0,0,0,0,0,0,0,0,0,0,0,0,0,0,0,0,0,0,0,0,0,0,0,0,0,0,0,0,0,0,0,0,0,0,0,0,0,0,0,0,0,0,0,0,0,0,0,0,0,0,0,0,0,0,0,0,0,0,0,0,0,0,0,0,0,0,0,0,0,0,0,0,0,0,0,0,0,0,0,0,0,0,0,0,0,0,0,0,0,0,0,0,0,0,0],"id":12,"left_children":[1,3,5,7,9,11,13,15,17,19,21,23,-1,25,27,29,31,33,35,37,39,41,43,45,47,49,51,53,55,57,59,61,63,65,67,69,71,73,-1,75,77,79,81,-1,-1,83,85,87,89,91,93,95,97,99,101,103,105,-1,-1,-1,-1,-1,-1,-1,-1,-1,-1,-1,-1,-1,-1,-1,-1,-1,-1,-1,-1,-1,-1,-1,-1,-1,-1,-1,-1,-1,-1,-1,-1,-1,-1,-1,-1,-1,-1,-1,-1,-1,-1,-1,-1,-1,-1,-1,-1,-1,-1],"loss_changes":[4.4414507E11,1.957945E11,2.7583975E11,2.2956853E11,2.2969408E11,1.9995224E11,2.7249231E11,2.2290691E11,2.7353283E11,1.2581311E11,4.076146E10,1.633915E11,0E0,2.2669335E11,3.43736E11,1.3795282E11,8.493106E10,1.9379465E11,3.267041E11,1.093001E11,1.1497675E11,3.6520915E10,1.5990456E9,1.628677E11,6.823703E10,2.8306735E11,6.7042312E10,2.5651046E11,5.9160756E10,9.08192E10,7.575808E10,1.4795578E11,4.7846494E10,1.8317457E10,1.1736341E11,1.3889482E11,2.4747223E11,7.646192E10,0E0,1.0305277E11,1.2336277E11,5.0444206E9,8.851731E9,0E0,0E0,1.1368408E11,1.1384226E11,1.443121E11,9.998477E10,1.011983E11,1.8961534E11,1.1032822E10,3.811287E10,2.2861034E11,6.557473E10,6.7134964E10,9.729016E9,0E0,0E0,0E0,0E0,0E0,0E0,0E0,0E0,0E0,0E0,0E0,0E0,0E0,0E0,0E0,0E0,0E0,0E0,0E0,0E0,0E0,0E0,0E0,0E0,0E0,0E0,0E0,0E0,0E0,0E0,0E0,0E0,0E0,0E0,0E0,0E0,0E0,0E0,0E0,0E0,0E0,0E0,0E0,0E0,0E0,0E0,0E0,0E0,0E0,0E0],"parents":[2147483647,0,0,1,1,2,2,3,3,4,4,5,5,6,6,7,7,8,8,9,9,10,10,11,11,13,13,14,14,15,15,16,16,17,17,18,18,19,19,20,20,21,21,22,22,23,23,24,24,25,25,26,26,27,27,28,28,29,29,30,30,31,31,32,32,33,33,34,34,35,35,36,36,37,37,39,39,40,40,41,41,42,42,45,45,46,46,47,47,48,48,49,49,50,50,51,51,52,52,53,53,54,54,55,55,56,56],"right_children":[2,4,6,8,10,12,14,16,18,20,22,24,-1,26,28,30,32,34,36,38,40,42,44,46,48,50,52,54,56,58,60,62,64,66,68,70,72,74,-1,76,78,80,82,-1,-1,84,86,88,90,92,94,96,98,100,102,104,106,-1,-1,-1,-1,-1,-1,-1,-1,-1,-1,-1,-1,-1,-1,-1,-1,-1,-1,-1,-1,-1,-1,-1,-1,-1,-1,-1,-1,-1,-1,-1,-1,-1,-1,-1,-1,-1,-1,-1,-1,-1,-1,-1,-1,-1,-1,-1,-1,-1,-1],"split_conditions":[1.1342E2,9.863E1,3E0,1.147E2,2.301E1,3.735E2,1.498E3,8.72E1,1.816E1,2E0,9.896E1,2.0739E4,1.1197568E5,2.53E2,1.3E1,8.183E1,3.1E4,8.2E1,7.89E1,2.009E1,1E0,4.7E4,2E0,1.725E2,1E0,1.1398E2,1.349E3,1E0,1.8774E2,6.704E1,5E0,2.238E1,9E0,6E0,8.873E1,7.5E1,1.591E3,3.0033E4,8.888091E4,1.725E2,3E0,3E0,6.7756E4,-4.626934E4,-1.2236719E4,1.74E1,2.4E3,1.92E2,1E0,2E0,1.74E1,2E0,8.0153E4,1E0,2.85E2,5.0629E4,1.985E3,-4.998408E3,-1.2485451E2,-3.5150626E2,-9.342689E3,1.988843E4,-2.3259185E3,-1.577473E3,6.8328335E3,3.437821E2,1.46895625E4,-3.9590523E4,-1.2197604E4,-2.3280933E3,-2.8145928E4,7.10547E3,1.12897695E5,2.0146201E4,-4.4147684E4,-1.2110223E4,-3.2684197E3,-4.5088586E4,9.413545E3,-8.5835E3,-3.1925213E4,1.7291537E4,-9.349402E3,-2.1391822E4,1.4638208E4,3.0728633E4,-8.227848E3,1.3324253E4,-5.1287215E4,-1.7788184E4,3.3094613E4,2.5334656E4,-4.566411E4,-1.1252252E4,1.547613E3,-7.573981E4,-1.6125525E4,-9.97246E3,-4.6837625E4,6.8748687E3,1.0853993E5,7.183803E4,6.6017505E3,-3.903198E4,-1.2502317E4,5.938063E2,2.7911389E4],"split_indices":[5,5,24,6,4,6,3,5,4,24,5,0,0,6,24,5,0,5,5,4,16,0,1,6,8,5,3,14,5,5,24,4,24,2,5,5,3,0,0,6,24,24,0,0,0,4,3,6,22,1,4,1,0,12,6,0,3,0,0,0,0,0,0,0,0,0,0,0,0,0,0,0,0,0,0,0,0,0,0,0,0,0,0,0,0,0,0,0,0,0,0,0,0,0,0,0,0,0,0,0,0,0,0,0,0,0,0],"split_type":[0,0,0,0,0,0,0,0,0,0,0,0,0,0,0,0,0,0,0,0,0,0,0,0,0,0,0,0,0,0,0,0,0,0,0,0,0,0,0,0,0,0,0,0,0,0,0,0,0,0,0,0,0,0,0,0,0,0,0,0,0,0,0,0,0,0,0,0,0,0,0,0,0,0,0,0,0,0,0,0,0,0,0,0,0,0,0,0,0,0,0,0,0,0,0,0,0,0,0,0,0,0,0,0,0,0,0],"sum_hessian":[5.733E3,4.141E3,1.592E3,3.566E3,5.75E2,1.39E2,1.453E3,2.363E3,1.203E3,5.5E2,2.5E1,1.38E2,1E0,4.88E2,9.65E2,1.986E3,3.77E2,9.5E1,1.108E3,1.2E1,5.38E2,1.1E1,1.4E1,1.15E2,2.3E1,4.72E2,1.6E1,9.02E2,6.3E1,1.435E3,5.51E2,1.12E2,2.65E2,3.3E1,6.2E1,3.25E2,7.83E2,1.1E1,1E0,4.76E2,6.2E1,8E0,3E0,1.3E1,1E0,3.3E1,8.2E1,1.1E1,1.2E1,4E1,4.32E2,4E0,1.2E1,8.94E2,8E0,5.9E1,4E0,5.71E2,8.64E2,1.04E2,4.47E2,6.8E1,4.4E1,1.72E2,9.3E1,2.1E1,1.2E1,2.2E1,4E1,3.06E2,1.9E1,7.82E2,1E0,1E1,1E0,2.3E2,2.46E2,3E0,5.9E1,2E0,6E0,2E0,1E0,1.1E1,2.2E1,7.5E1,7E0,5E0,6E0,6E0,6E0,3.9E1,1E0,1.73E2,2.59E2,3E0,1E0,9E0,3E0,8.93E2,1E0,6E0,2E0,1E1,4.9E1,2E0,2E0],"tree_param":{"num_deleted":"0","num_feature":"25","num_nodes":"107","size_leaf_vector":"1"}},{"base_weights":[4.2601428E2,-3.5494233E3,1.265435E4,7.046124E3,-6.2095337E3,1.7985648E4,-1.456467E4,4.0283281E3,2.6587197E5,-2.8905305E3,-1.419059E4,1.6309593E4,2.1195039E5,-1.6790238E4,7.459741E4,-3.798263E4,5.963186E3,4.7522E5,3.2478842E4,-5.6307915E3,2.4574475E4,-2.461152E4,-4.9954814E3,9.41817E3,4.66393E4,3.0344303E5,-1.1493125E3,2.9411309E3,-4.0307973E4,-1.6005265E4,-3.1373488E4,8.206845E3,-3.3009555E4,1.8324355E5,1.0266676E4,-4.84311E3,-1.0189653E5,2.514936E5,1.8186967E4,-2.0912441E4,-5.313186E4,-6.456467E4,-4.2076377E3,8.781992E3,9.225893E4,3.990533E4,1.1806904E5,2.128425E3,1.05495586E5,-3.2848125E4,1.4092069E4,1.5454298E4,-6.4151367E4,8.030095E2,-7.115459E4,-3.1512083E3,-1.1647071E4,2.8660879E4,1.7693713E3,-2.3172363E4,3.3218523E4,-1.673426E3,1.1523914E4,-4.5668617E4,-5.985811E3,1.12248266E5,2.8985916E4,3.52471E4,3.6942058E3,-7.2215776E3,7.355562E3,-9.565862E3,-3.1873443E4,-1.813536E2,-1.18518545E4,3.797693E3,-7.897722E3,1.4097298E4,-4.4261594E4,-6.5465625E2,-1.4127001E4,-4.7008896E3,1.9781527E4,-2.3544508E4,1.29643E4,-5.082306E3,1.1581021E4,-5.0903523E4,-1.2087946E4],"categories":[],"categories_nodes":[],"categories_segments":[],"categories_sizes":[],"default_left":[0,0,0,0,0,0,0,0,0,0,0,0,0,0,0,0,0,0,0,0,0,0,0,0,0,0,0,0,0,0,0,0,0,0,0,0,0,0,0,0,0,0,0,0,0,0,0,0,0,0,0,0,0,0,0,0,0,0,0,0,0,0,0,0,0,0,0,0,0,0,0,0,0,0,0,0,0,0,0,0,0,0,0,0,0,0,0,0,0],"id":13,"left_children":[1,3,5,7,9,11,13,15,17,19,21,23,25,27,-1,29,31,33,-1,35,37,39,41,43,45,47,49,51,53,-1,55,57,59,-1,-1,61,63,65,67,69,71,-1,73,75,-1,77,-1,-1,-1,79,-1,81,83,85,87,-1,-1,-1,-1,-1,-1,-1,-1,-1,-1,-1,-1,-1,-1,-1,-1,-1,-1,-1,-1,-1,-1,-1,-1,-1,-1,-1,-1,-1,-1,-1,-1,-1,-1],"loss_changes":[2.7879178E11,1.22029834E11,2.0443559E11,6.776906E11,9.161142E10,3.7918084E11,1.3949944E11,7.01318E10,2.7850297E11,1.8415223E11,9.723178E10,2.4369008E11,1.9531923E11,1.0684709E11,0E0,2.1858918E9,7.223529E10,2.1827944E11,0E0,1.6814526E11,3.1720348E11,4.9106354E10,8.869519E10,1.7803764E11,4.8890895E11,9.7511604E10,7.6447447E9,1.06773406E11,1.3321131E11,0E0,4.1010913E9,1.5651291E11,2.9465238E11,0E0,0E0,7.0379815E10,7.120205E10,7.783642E10,1.25108404E11,6.1306946E10,5.75469E10,0E0,6.865607E10,1.29912E11,0E0,2.8983204E11,0E0,0E0,0E0,1.2074621E9,0E0,1.6915851E11,3.4163237E10,3.1507622E10,1.755983E11,0E0,0E0,0E0,0E0,0E0,0E0,0E0,0E0,0E0,0E0,0E0,0E0,0E0,0E0,0E0,0E0,0E0,0E0,0E0,0E0,0E0,0E0,0E0,0E0,0E0,0E0,0E0,0E0,0E0,0E0,0E0,0E0,0E0,0E0],"parents":[2147483647,0,0,1,1,2,2,3,3,4,4,5,5,6,6,7,7,8,8,9,9,10,10,11,11,12,12,13,13,15,15,16,16,17,17,19,19,20,20,21,21,22,22,23,23,24,24,25,25,26,26,27,27,28,28,30,30,31,31,32,32,35,35,36,36,37,37,38,38,39,39,40,40,42,42,43,43,45,45,49,49,51,51,52,52,53,53,54,54],"right_children":[2,4,6,8,10,12,14,16,18,20,22,24,26,28,-1,30,32,34,-1,36,38,40,42,44,46,48,50,52,54,-1,56,58,60,-1,-1,62,64,66,68,70,72,-1,74,76,-1,78,-1,-1,-1,80,-1,82,84,86,88,-1,-1,-1,-1,-1,-1,-1,-1,-1,-1,-1,-1,-1,-1,-1,-1,-1,-1,-1,-1,-1,-1,-1,-1,-1,-1,-1,-1,-1,-1,-1,-1,-1,-1],"split_conditions":[1E0,5E0,7.9151E4,1.677E2,1.399E3,7.8E4,4.8E2,7.99E2,4E0,2E2,1.163E2,1.985E3,1.78E2,1E0,7.459741E4,9.902E3,1.4992E2,3.7833E4,3.2478842E4,1.39E3,8.85E1,1E0,1.461E3,1E0,7.6567E4,1.2136E2,7.8782E4,2.184E3,1.2632E2,-1.6005265E4,1.7624E4,1.585E1,1.678E1,1.8324355E5,1.0266676E4,1.373E3,1.2E1,6.293E4,2.3899E4,2.6E1,8.984E1,-6.456467E4,1.637E2,3.43E2,9.225893E4,2.696E3,1.1806904E5,2.128425E3,1.05495586E5,2E0,1.4092069E4,1.586E3,1.5E5,2.17E1,9E0,-3.1512083E3,-1.1647071E4,2.8660879E4,1.7693713E3,-2.3172363E4,3.3218523E4,-1.673426E3,1.1523914E4,-4.5668617E4,-5.985811E3,1.12248266E5,2.8985916E4,3.52471E4,3.6942058E3,-7.2215776E3,7.355562E3,-9.565862E3,-3.1873443E4,-1.813536E2,-1.18518545E4,3.797693E3,-7.897722E3,1.4097298E4,-4.4261594E4,-6.5465625E2,-1.4127001E4,-4.7008896E3,1.9781527E4,-2.3544508E4,1.29643E4,-5.082306E3,1.1581021E4,-5.0903523E4,-1.2087946E4],"split_indices":[22,24,0,5,3,0,6,3,24,6,5,3,5,20,0,0,5,0,0,3,5,14,3,12,0,5,0,3,5,0,0,4,4,0,0,3,24,0,0,4,5,0,5,6,0,3,0,0,0,1,0,3,0,4,24,0,0,0,0,0,0,0,0,0,0,0,0,0,0,0,0,0,0,0,0,0,0,0,0,0,0,0,0,0,0,0,0,0,0],"split_type":[0,0,0,0,0,0,0,0,0,0,0,0,0,0,0,0,0,0,0,0,0,0,0,0,0,0,0,0,0,0,0,0,0,0,0,0,0,0,0,0,0,0,0,0,0,0,0,0,0,0,0,0,0,0,0,0,0,0,0,0,0,0,0,0,0,0,0,0,0,0,0,0,0,0,0,0,0,0,0,0,0,0,0,0,0,0,0,0,0],"sum_hessian":[5.733E3,4.327E3,1.406E3,8.68E2,3.459E3,1.176E3,2.3E2,8.59E2,9E0,2.444E3,1.015E3,1.167E3,9E0,2.29E2,1E0,3.7E1,8.22E2,3E0,6E0,2.223E3,2.21E2,4.75E2,5.4E2,9.52E2,2.15E2,6E0,3E0,1.25E2,1.04E2,9E0,2.8E1,7.78E2,4.4E1,2E0,1E0,2.206E3,1.7E1,5E0,2.16E2,4.22E2,5.3E1,1E0,5.39E2,9.51E2,1E0,2.12E2,3E0,1E0,5E0,2E0,1E0,1.06E2,1.9E1,4.5E1,5.9E1,8E0,2E1,1.9E1,7.59E2,3.4E1,1E1,2.17E3,3.6E1,1E1,7E0,2E0,3E0,1.1E1,2.05E2,3.95E2,2.7E1,3.9E1,1.4E1,4.9E2,4.9E1,8.57E2,9.4E1,2.05E2,7E0,1E0,1E0,6.6E1,4E1,1.7E1,2E0,3.1E1,1.4E1,1.3E1,4.6E1],"tree_param":{"num_deleted":"0","num_feature":"25","num_nodes":"89","size_leaf_vector":"1"}},{"base_weights":[3.9617923E2,-4.7075052E2,3.5817176E4,5.9636875E1,-6.3114152E4,7.167202E4,-3.667116E4,-1.1297465E3,4.7433387E4,-3.050404E4,-2.8086594E5,1.1862275E5,-5.2072992E4,2.3010645E4,-2.2865969E5,2.1444705E3,-9.881684E3,1.4110972E5,1.0997688E4,9.6617234E4,-7.872827E4,-1.1666139E5,-3.8893633E4,1.449947E5,-6.744034E4,-7.756406E4,-1.3900448E4,-1.7889543E4,2.3049317E5,6.646275E4,-3.5332044E5,1.7352521E3,1.1686473E5,-8.0676772E3,-6.869476E4,2.5425914E5,3.7404992E4,1.1486727E5,-2.1947941E4,2.2218103E5,-2.1005562E5,-1.9029164E5,-4.9954867E4,3.489259E4,2.1949636E5,-2.5037947E4,-1.4389917E5,7.820493E4,-7.869712E4,-7.6113555E4,1.1199224E5,7.914303E4,9.586275E3,-1.1337488E5,-2.3483102E4,6.0322363E2,-1.0786668E5,-1.704785E3,1.2739613E5,-1.6326578E3,-7.23602E3,-4.0002082E4,-1.2931695E4,-1.8308852E4,1.1406557E5,-5.1779426E4,2.0578406E4,-1.6100809E4,6.0746984E4,-3.721158E4,2.2030632E3,8.822611E4,-5.8979937E3,-2.0422951E4,-9.539895E4,-2.6046883E4,-7.944581E4,-3.6132316E4,5.7194375E3,4.880219E4,-2.867185E4,8.225719E4,1.8882188E2,-1.2877851E4,1.2343707E4,-5.609809E4,-8.656538E3,-1.4494402E4,4.1798918E4,-4.0605753E2,-3.284976E4,-3.4709098E4,2.4482852E4,7.866991E4,-9.562128E3],"categories":[],"categories_nodes":[],"categories_segments":[],"categories_sizes":[],"default_left":[0,0,0,0,0,0,0,0,0,0,0,0,0,0,0,0,0,0,0,0,0,0,0,0,0,0,0,0,0,0,0,0,0,0,0,0,0,0,0,0,0,0,0,0,0,0,0,0,0,0,0,0,0,0,0,0,0,0,0,0,0,0,0,0,0,0,0,0,0,0,0,0,0,0,0,0,0,0,0,0,0,0,0,0,0,0,0,0,0,0,0,0,0,0,0],"id":14,"left_children":[1,3,5,7,9,11,13,15,17,19,21,23,25,27,29,31,33,35,37,39,41,-1,-1,43,45,-1,47,49,51,-1,53,55,57,59,61,63,65,67,69,71,73,75,77,79,81,83,85,87,89,91,93,-1,-1,-1,-1,-1,-1,-1,-1,-1,-1,-1,-1,-1,-1,-1,-1,-1,-1,-1,-1,-1,-1,-1,-1,-1,-1,-1,-1,-1,-1,-1,-1,-1,-1,-1,-1,-1,-1,-1,-1,-1,-1,-1,-1],"loss_changes":[1.7609376E11,1.8599882E11,3.5869927E11,3.1288404E11,3.2517528E11,5.4068956E11,5.3233972E11,1.5524933E11,4.6263822E11,2.6508018E11,4.7580316E10,3.3853728E11,2.0132854E11,3.0962208E11,6.956237E11,1.8490386E11,1.5680954E11,4.3638633E11,3.4130395E11,5.0875443E11,9.0005815E10,0E0,0E0,4.763057E11,2.5575395E10,0E0,1.4342131E11,2.4295355E11,3.1258345E10,0E0,3.130196E10,3.918883E11,5.3047532E11,6.0220817E10,6.7038036E10,7.38049E11,1.4938789E11,3.652906E11,2.2818026E11,1.6229014E11,3.9653327E10,2.3275323E10,1.2878442E11,4.3232346E11,4.1880414E11,1.0053578E10,9.477558E9,8.40665E10,3.32046E10,1.467928E11,2.2450376E11,0E0,0E0,0E0,0E0,0E0,0E0,0E0,0E0,0E0,0E0,0E0,0E0,0E0,0E0,0E0,0E0,0E0,0E0,0E0,0E0,0E0,0E0,0E0,0E0,0E0,0E0,0E0,0E0,0E0,0E0,0E0,0E0,0E0,0E0,0E0,0E0,0E0,0E0,0E0,0E0,0E0,0E0,0E0,0E0],"parents":[2147483647,0,0,1,1,2,2,3,3,4,4,5,5,6,6,7,7,8,8,9,9,10,10,11,11,12,12,13,13,14,14,15,15,16,16,17,17,18,18,19,19,20,20,23,23,24,24,26,26,27,27,28,28,30,30,31,31,32,32,33,33,34,34,35,35,36,36,37,37,38,38,39,39,40,40,41,41,42,42,43,43,44,44,45,45,46,46,47,47,48,48,49,49,50,50],"right_children":[2,4,6,8,10,12,14,16,18,20,22,24,26,28,30,32,34,36,38,40,42,-1,-1,44,46,-1,48,50,52,-1,54,56,58,60,62,64,66,68,70,72,74,76,78,80,82,84,86,88,90,92,94,-1,-1,-1,-1,-1,-1,-1,-1,-1,-1,-1,-1,-1,-1,-1,-1,-1,-1,-1,-1,-1,-1,-1,-1,-1,-1,-1,-1,-1,-1,-1,-1,-1,-1,-1,-1,-1,-1,-1,-1,-1,-1,-1,-1],"split_conditions":[1.85E2,1.8104E2,1E0,3.735E2,3.82E2,2E0,1.92E1,2E0,7E0,1.482E1,8E0,2.184E3,3.0033E4,1.71E1,6E0,1.77E2,1.4992E2,2.148E3,1.424E1,1E0,3.0033E4,-1.1666139E5,-3.8893633E4,1.985E3,1.92E1,-7.756406E4,6.0529E4,8.0153E4,6E0,6.646275E4,6.5192E4,1.7433E2,2.53E2,3E0,6E0,1E0,2.179E3,5.5418E4,4.5652E4,1.3E1,2.7153E4,1.995E3,1E0,1.956E3,7.7027E4,8.0153E4,6.6951E4,1.36E1,1.609E1,7E0,6E0,7.914303E4,9.586275E3,-1.1337488E5,-2.3483102E4,6.0322363E2,-1.0786668E5,-1.704785E3,1.2739613E5,-1.6326578E3,-7.23602E3,-4.0002082E4,-1.2931695E4,-1.8308852E4,1.1406557E5,-5.1779426E4,2.0578406E4,-1.6100809E4,6.0746984E4,-3.721158E4,2.2030632E3,8.822611E4,-5.8979937E3,-2.0422951E4,-9.539895E4,-2.6046883E4,-7.944581E4,-3.6132316E4,5.7194375E3,4.880219E4,-2.867185E4,8.225719E4,1.8882188E2,-1.2877851E4,1.2343707E4,-5.609809E4,-8.656538E3,-1.4494402E4,4.1798918E4,-4.0605753E2,-3.284976E4,-3.4709098E4,2.4482852E4,7.866991E4,-9.562128E3],"split_indices":[5,5,19,6,6,1,4,1,24,4,24,3,0,4,24,5,5,3,4,19,0,0,0,3,4,0,0,0,2,0,0,5,6,1,24,19,3,0,0,24,0,3,19,3,0,0,0,4,4,2,2,0,0,0,0,0,0,0,0,0,0,0,0,0,0,0,0,0,0,0,0,0,0,0,0,0,0,0,0,0,0,0,0,0,0,0,0,0,0,0,0,0,0,0,0],"split_type":[0,0,0,0,0,0,0,0,0,0,0,0,0,0,0,0,0,0,0,0,0,0,0,0,0,0,0,0,0,0,0,0,0,0,0,0,0,0,0,0,0,0,0,0,0,0,0,0,0,0,0,0,0,0,0,0,0,0,0,0,0,0,0,0,0,0,0,0,0,0,0,0,0,0,0,0,0,0,0,0,0,0,0,0,0,0,0,0,0,0,0,0,0,0,0],"sum_hessian":[5.733E3,5.597E3,1.36E2,5.551E3,4.6E1,9.1E1,4.5E1,5.416E3,1.35E2,4.1E1,5E0,6.6E1,2.5E1,3.5E1,1E1,3.942E3,1.474E3,3.7E1,9.8E1,1.1E1,3E1,2E0,3E0,5.8E1,8E0,3E0,2.2E1,3E1,5E0,2E0,8E0,3.929E3,1.3E1,1.431E3,4.3E1,1.7E1,2E1,2.3E1,7.5E1,8E0,3E0,5E0,2.5E1,2.4E1,3.4E1,6E0,2E0,9E0,1.3E1,2.1E1,9E0,4E0,1E0,7E0,1E0,3.927E3,2E0,1E1,3E0,1.231E3,2E2,1.1E1,3.2E1,5E0,1.2E1,2E0,1.8E1,8E0,1.5E1,1.6E1,5.9E1,6E0,2E0,2E0,1E0,3E0,2E0,1.2E1,1.3E1,1.2E1,1.2E1,2.7E1,7E0,5E0,1E0,1E0,1E0,3E0,6E0,4E0,9E0,1.7E1,4E0,4E0,5E0],"tree_param":{"num_deleted":"0","num_feature":"25","num_nodes":"95","size_leaf_vector":"1"}},{"base_weights":[2.3142389E2,1.3997546E2,7.867579E4,1.3153413E3,-1.9615365E4,-1.2406394E3,1.1628392E4,-2.0748275E4,5.1607277E4,-1.5824326E3,8.087765E4,-1.540222E5,1.2390879E4,-1.653897E4,-5.2610527E4,-7.718301E2,-4.509894E4,2.5426922E5,-2.700724E4,-5.5643066E4,-4.2305254E3,1.9409107E4,-6.848493E3,-1.2434516E4,-6.754571E4,-7.381751E4,9.787767E4,-6.1688257E2,6.3135713E3,4.0573425E3,-2.6907822E4,1.163972E5,1.709414E4,1.140299E4,-2.9507832E4,-2.5090735E3,8.733154E3,6.5023473E4,-2.9920745E3,-5.0248257E3,7.405873E3,-2.1867328E4,5.904291E3,-3.0546572E4,2.3243625E2,3.7671508E4,1.1267331E4],"categories":[],"categories_nodes":[],"categories_segments":[],"categories_sizes":[],"default_left":[0,0,0,0,0,0,0,0,0,0,0,0,0,0,0,0,0,0,0,0,0,0,0,0,0,0,0,0,0,0,0,0,0,0,0,0,0,0,0,0,0,0,0,0,0,0,0],"id":15,"left_children":[1,3,-1,5,7,9,11,13,-1,15,17,19,21,23,25,27,29,31,33,-1,-1,35,37,39,41,43,45,-1,-1,-1,-1,-1,-1,-1,-1,-1,-1,-1,-1,-1,-1,-1,-1,-1,-1,-1,-1],"loss_changes":[1.3735811E11,1.3314463E11,0E0,1.4267451E11,7.347871E10,1.2188469E11,1.3768806E11,4.2181722E10,0E0,1.5238668E11,3.4358103E11,1.9390202E10,1.447461E11,5.8826228E10,1.2530693E11,1.1894412E11,2.0773801E11,1.6256424E11,5.9408085E10,0E0,0E0,2.117492E11,2.0270273E11,4.285918E10,1.1226022E10,6.901298E10,3.63631E9,0E0,0E0,0E0,0E0,0E0,0E0,0E0,0E0,0E0,0E0,0E0,0E0,0E0,0E0,0E0,0E0,0E0,0E0,0E0,0E0],"parents":[2147483647,0,0,1,1,3,3,4,4,5,5,6,6,7,7,9,9,10,10,11,11,12,12,13,13,14,14,15,15,16,16,17,17,18,18,21,21,22,22,23,23,24,24,25,25,26,26],"right_children":[2,4,-1,6,8,10,12,14,-1,16,18,20,22,24,26,28,30,32,34,-1,-1,36,38,40,42,44,46,-1,-1,-1,-1,-1,-1,-1,-1,-1,-1,-1,-1,-1,-1,-1,-1,-1,-1,-1,-1],"split_conditions":[1E0,1.2E5,7.867579E4,2.196E2,4.8E2,2.494E3,1.349E3,3.3E2,5.1607277E4,1.2136E2,6.3008E4,2E0,2E0,1.52098E5,1.52098E5,1.1836E2,1.453E1,2.498E3,1.3E1,-5.5643066E4,-4.2305254E3,3.0033E4,1.2094E4,1.969E3,1.3678E2,4E2,2.184E3,-6.1688257E2,6.3135713E3,4.0573425E3,-2.6907822E4,1.163972E5,1.709414E4,1.140299E4,-2.9507832E4,-2.5090735E3,8.733154E3,6.5023473E4,-2.9920745E3,-5.0248257E3,7.405873E3,-2.1867328E4,5.904291E3,-3.0546572E4,2.3243625E2,3.7671508E4,1.1267331E4],"split_indices":[12,0,0,6,6,3,3,6,0,5,0,1,1,0,0,5,4,3,4,0,0,0,0,3,5,6,3,0,0,0,0,0,0,0,0,0,0,0,0,0,0,0,0,0,0,0,0],"split_type":[0,0,0,0,0,0,0,0,0,0,0,0,0,0,0,0,0,0,0,0,0,0,0,0,0,0,0,0,0,0,0,0,0,0,0,0,0,0,0,0,0,0,0,0,0,0,0],"sum_hessian":[5.733E3,5.732E3,1E0,5.411E3,3.21E2,4.337E3,1.074E3,3.2E2,1E0,4.32E3,1.7E1,4E0,1.07E3,2.84E2,3.6E1,4.242E3,7.8E1,6E0,1.1E1,3E0,1E0,7.84E2,2.86E2,2.64E2,2E1,3.2E1,4E0,4.007E3,2.35E2,3.4E1,4.4E1,3E0,3E0,6E0,5E0,2.03E2,5.81E2,3E0,2.83E2,2.37E2,2.7E1,1.9E1,1E0,2.3E1,9E0,2E0,2E0],"tree_param":{"num_deleted":"0","num_feature":"25","num_nodes":"47","size_leaf_vector":"1"}},{"base_weights":[2.0418465E2,1.7862883E4,-1.0277789E3,7.324447E4,7.8798203E3,-1.1111478E3,6.687443E4,3.4365965E4,1.4345142E5,4.117548E3,1.125071E5,-9.965809E1,-1.38249375E4,7.4531984E4,-4.8609617E4,4.3295523E4,3.2327016E5,8.094294E3,-4.7948074E4,4.27151E4,8.531423E4,-1.4960934E3,1.1184334E4,-4.7683406E4,-9.00393E3,1.3882855E5,-4.4369232E2,6.707813E3,-5.638698E4,8.353512E4,-4.5842773E4,7.8451E4,1.4618153E5,2.9926138E3,7.989733E4,-5.892376E4,-1.4168817E4,1.1897281E4,1.949697E4,-1.6534708E3,5.17986E4,-5.807035E4,1.6910643E4,-1.07208734E5,-3.688432E4,-6.804596E3,-5.7228867E4,-2.1756602E4,4.819947E4,1.1145653E4,-2.8296732E4,-2.9057564E4,-7.2131626E3,-7.975988E3,4.0358473E4,1.500047E4,-2.4691275E4,9.941425E3,3.2158463E4,4.3035953E4,4.2095917E2,2.1549675E3,4.338651E4,-3.3419426E4,3.3072153E3,-2.8459126E3,5.884437E3,-2.1886153E2,-9.025222E3,-3.738825E4,3.5612438E4,3.7134387E4,3.7460945E3,6.7433228E3,-3.9770832E4,-4.291867E3,-2.02344E4,-2.307692E3,1.5890281E4,-7.782077E3,-1.9874502E4],"categories":[],"categories_nodes":[],"categories_segments":[],"categories_sizes":[],"default_left":[0,0,0,0,0,0,0,0,0,0,0,0,0,0,0,0,0,0,0,0,0,0,0,0,0,0,0,0,0,0,0,0,0,0,0,0,0,0,0,0,0,0,0,0,0,0,0,0,0,0,0,0,0,0,0,0,0,0,0,0,0,0,0,0,0,0,0,0,0,0,0,0,0,0,0,0,0,0,0,0,0],"id":16,"left_children":[1,3,5,7,9,11,-1,13,15,17,19,21,23,25,27,29,31,33,35,37,-1,39,41,43,45,47,49,-1,51,53,55,57,-1,59,61,-1,63,65,-1,67,-1,69,71,73,75,77,79,-1,-1,-1,-1,-1,-1,-1,-1,-1,-1,-1,-1,-1,-1,-1,-1,-1,-1,-1,-1,-1,-1,-1,-1,-1,-1,-1,-1,-1,-1,-1,-1,-1,-1],"loss_changes":[1.247608E11,2.0619914E11,1.00336706E11,1.50654E11,1.247131E11,6.892752E10,0E0,1.30269315E11,3.4620195E11,6.4160055E10,1.19802135E11,7.826781E10,6.4047284E10,1.2539922E11,8.436148E9,5.4045925E10,2.4282825E11,1.0489363E11,1.0754749E11,5.4049434E9,0E0,1.2143133E11,2.1790782E11,2.7543814E10,3.641434E10,7.626351E10,4.938717E10,0E0,1.3378859E10,5.9731173E10,2.1588472E10,1.657643E9,0E0,5.9853054E10,8.838226E10,0E0,4.7768257E10,1.0112159E9,0E0,1.1600361E11,0E0,5.0896083E11,2.3767071E11,2.600244E10,2.870807E10,1.8076537E10,2.5146E9,0E0,0E0,0E0,0E0,0E0,0E0,0E0,0E0,0E0,0E0,0E0,0E0,0E0,0E0,0E0,0E0,0E0,0E0,0E0,0E0,0E0,0E0,0E0,0E0,0E0,0E0,0E0,0E0,0E0,0E0,0E0,0E0,0E0,0E0],"parents":[2147483647,0,0,1,1,2,2,3,3,4,4,5,5,7,7,8,8,9,9,10,10,11,11,12,12,13,13,14,14,15,15,16,16,17,17,18,18,19,19,21,21,22,22,23,23,24,24,25,25,26,26,28,28,29,29,30,30,31,31,33,33,34,34,36,36,37,37,39,39,41,41,42,42,43,43,44,44,45,45,46,46],"right_children":[2,4,6,8,10,12,-1,14,16,18,20,22,24,26,28,30,32,34,36,38,-1,40,42,44,46,48,50,-1,52,54,56,58,-1,60,62,-1,64,66,-1,68,-1,70,72,74,76,78,80,-1,-1,-1,-1,-1,-1,-1,-1,-1,-1,-1,-1,-1,-1,-1,-1,-1,-1,-1,-1,-1,-1,-1,-1,-1,-1,-1,-1,-1,-1,-1,-1,-1,-1],"split_conditions":[3E0,1.62E1,1E0,1.462E1,2.61E1,1.3E1,6.687443E4,1.637E2,1.5287E2,3.2228E4,1.482E3,1.968E3,1.462E1,7E0,4.187E3,1.3678E2,9.902E3,6E0,3.3222E4,1.197E3,8.531423E4,1.9726E2,2.2305E4,4.9124E4,1.7E1,6.398E3,1.3145E4,6.707813E3,1.0711E4,1.1344E4,9.343E3,6.398E3,1.4618153E5,5E0,1.006E2,-5.892376E4,2E0,1.0711E4,1.949697E4,1.5287E2,5.17986E4,1.827E1,4E0,1.12E3,1.36E1,3.82E2,4.73E1,-2.1756602E4,4.819947E4,1.1145653E4,-2.8296732E4,-2.9057564E4,-7.2131626E3,-7.975988E3,4.0358473E4,1.500047E4,-2.4691275E4,9.941425E3,3.2158463E4,4.3035953E4,4.2095917E2,2.1549675E3,4.338651E4,-3.3419426E4,3.3072153E3,-2.8459126E3,5.884437E3,-2.1886153E2,-9.025222E3,-3.738825E4,3.5612438E4,3.7134387E4,3.7460945E3,6.7433228E3,-3.9770832E4,-4.291867E3,-2.02344E4,-2.307692E3,1.5890281E4,-7.782077E3,-1.9874502E4],"split_indices":[24,4,12,4,4,24,0,5,5,0,3,3,4,2,0,5,0,2,0,3,0,5,0,0,24,0,0,0,0,0,0,0,0,2,5,0,24,0,0,5,0,4,24,3,4,6,5,0,0,0,0,0,0,0,0,0,0,0,0,0,0,0,0,0,0,0,0,0,0,0,0,0,0,0,0,0,0,0,0,0,0],"split_type":[0,0,0,0,0,0,0,0,0,0,0,0,0,0,0,0,0,0,0,0,0,0,0,0,0,0,0,0,0,0,0,0,0,0,0,0,0,0,0,0,0,0,0,0,0,0,0,0,0,0,0,0,0,0,0,0,0,0,0,0,0,0,0,0,0,0,0,0,0,0,0,0,0,0,0,0,0,0,0,0,0],"sum_hessian":[5.733E3,3.73E2,5.36E3,5.6E1,3.17E2,5.359E3,1E0,3.7E1,1.9E1,3.07E2,1E1,4.965E3,3.94E2,2.5E1,1.2E1,1.3E1,6E0,2.86E2,2.1E1,8E0,2E0,4.419E3,5.46E2,4.8E1,3.46E2,1.3E1,1.2E1,1E0,1.1E1,9E0,4E0,3E0,3E0,2.68E2,1.8E1,3E0,1.8E1,4E0,4E0,4.416E3,3E0,4.1E1,5.05E2,6E0,4.2E1,3.32E2,1.4E1,1E0,1.2E1,9E0,3E0,4E0,7E0,3E0,6E0,1E0,3E0,2E0,1E0,2E0,2.66E2,9E0,9E0,3E0,1.5E1,1E0,3E0,4.278E3,1.38E2,3E1,1.1E1,1.9E1,4.86E2,1E0,5E0,2.5E1,1.7E1,3.28E2,4E0,4E0,1E1],"tree_param":{"num_deleted":"0","num_feature":"25","num_nodes":"81","size_leaf_vector":"1"}},{"base_weights":[2.084123E2,5.827383E3,-2.4673416E3,3.266301E3,3.0793832E4,-1.4561025E3,-2.1699441E4,-1.8910906E4,5.582481E3,2.9896872E5,2.0974412E4,-2.2486562E3,7.481336E4,-2.609271E3,-6.3279496E4,-6.925603E4,-7.621446E3,4.8102637E3,1.1114958E5,1.0593948E5,4.2231753E3,-2.6854625E4,6.970325E4,5.4172984E4,-3.1734902E3,2.6330562E5,1.5771906E4,-3.84784E4,1.989439E4,-1.7992498E5,-3.9630758E4,-4.308215E4,-1.226333E5,5.6364805E3,-5.2444348E4,3.9471235E3,8.043285E4,7.421526E4,-4.3609938E4,6.1315145E4,-6.895633E4,1.4155566E5,2.8494451E4,3.1551863E4,1.7634012E5,-3.7507356E3,7.329008E4,-7.639375E2,1.1864032E5,-9.2764375E4,4.118974E4,-1.0884684E5,8.903342E3,1.3455339E5,1.0819412E4,-2.5373886E5,-5.536335E4,7.7937E4,-5.0595676E4,-1.7519375E4,3.948498E4,-4.0098312E4,-5.161725E3,5.6558213E3,-1.9973758E4,-4.5270598E4,1.2988726E3,1.4161421E3,-2.5373377E4,9.833974E4,1.3345505E4,-2.6211002E4,8.782038E3,3.6534254E4,-1.2960846E4,-2.5660072E4,1.3602938E4,2.9217024E3,8.1816914E4,-1.9211346E3,4.535158E4,2.0178168E4,-1.6111088E3,7.7417346E2,7.883694E4,-3.0122936E4,-9.9443085E2,5.028472E4,-1.2355469E4,3.815087E4,-2.5739488E4,-1.6567201E3,-7.934614E4,8.27993E4,2.6315273E3,-4.0582938E4,8.349544E2,2.3897809E4,-1.1259972E4,-1.2580679E4,5.3471496E4,-2.1446038E3,1.294818E4,-2.2336914E4,-8.241122E4,-3.2686625E4,5.00495E3,-5.1575902E4,-9.179611E3],"categories":[],"categories_nodes":[],"categories_segments":[],"categories_sizes":[],"default_left":[0,0,0,0,0,0,0,0,0,0,0,0,0,0,0,0,0,0,0,0,0,0,0,0,0,0,0,0,0,0,0,0,0,0,0,0,0,0,0,0,0,0,0,0,0,0,0,0,0,0,0,0,0,0,0,0,0,0,0,0,0,0,0,0,0,0,0,0,0,0,0,0,0,0,0,0,0,0,0,0,0,0,0,0,0,0,0,0,0,0,0,0,0,0,0,0,0,0,0,0,0,0,0,0,0,0,0,0,0],"id":17,"left_children":[1,3,5,7,9,11,13,15,17,19,21,23,25,27,29,31,33,35,37,-1,-1,39,41,43,45,47,49,51,53,55,57,59,61,63,65,67,69,-1,71,73,75,77,79,81,83,85,87,89,-1,91,93,95,97,99,101,103,105,-1,107,-1,-1,-1,-1,-1,-1,-1,-1,-1,-1,-1,-1,-1,-1,-1,-1,-1,-1,-1,-1,-1,-1,-1,-1,-1,-1,-1,-1,-1,-1,-1,-1,-1,-1,-1,-1,-1,-1,-1,-1,-1,-1,-1,-1,-1,-1,-1,-1,-1,-1],"loss_changes":[8.622497E10,1.1819051E11,7.552485E10,8.634977E10,4.466606E11,2.2334092E11,1.5382633E11,8.984288E10,1.2345842E11,8.76121E10,3.91091E11,1.9089221E11,4.187437E11,1.0892853E11,1.6113908E11,3.5232317E10,7.81435E10,9.830985E10,2.4270802E11,0E0,0E0,3.1975634E11,2.4172544E11,1.5748604E11,1.5904013E11,3.14402E11,8.658365E10,1.7434644E11,8.490805E10,7.789589E10,1.8386669E11,6.387468E10,8.163885E9,9.8606105E10,1.6834812E11,1.0274826E11,1.3658667E11,0E0,2.1693915E10,1.8221431E11,1.1377502E11,5.1604514E11,2.3215432E11,6.7601875E10,1.3451493E11,1.5014937E11,2.984472E11,5.4425903E10,0E0,8.842799E10,1.8787898E11,6.2333583E10,1.0813124E11,5.3733974E10,4.563507E10,2.0987576E9,2.1123332E10,0E0,1.1847124E11,0E0,0E0,0E0,0E0,0E0,0E0,0E0,0E0,0E0,0E0,0E0,0E0,0E0,0E0,0E0,0E0,0E0,0E0,0E0,0E0,0E0,0E0,0E0,0E0,0E0,0E0,0E0,0E0,0E0,0E0,0E0,0E0,0E0,0E0,0E0,0E0,0E0,0E0,0E0,0E0,0E0,0E0,0E0,0E0,0E0,0E0,0E0,0E0,0E0,0E0],"parents":[2147483647,0,0,1,1,2,2,3,3,4,4,5,5,6,6,7,7,8,8,9,9,10,10,11,11,12,12,13,13,14,14,15,15,16,16,17,17,18,18,21,21,22,22,23,23,24,24,25,25,26,26,27,27,28,28,29,29,30,30,31,31,32,32,33,33,34,34,35,35,36,36,38,38,39,39,40,40,41,41,42,42,43,43,44,44,45,45,46,46,47,47,49,49,50,50,51,51,52,52,53,53,54,54,55,55,56,56,58,58],"right_children":[2,4,6,8,10,12,14,16,18,20,22,24,26,28,30,32,34,36,38,-1,-1,40,42,44,46,48,50,52,54,56,58,60,62,64,66,68,70,-1,72,74,76,78,80,82,84,86,88,90,-1,92,94,96,98,100,102,104,106,-1,108,-1,-1,-1,-1,-1,-1,-1,-1,-1,-1,-1,-1,-1,-1,-1,-1,-1,-1,-1,-1,-1,-1,-1,-1,-1,-1,-1,-1,-1,-1,-1,-1,-1,-1,-1,-1,-1,-1,-1,-1,-1,-1,-1,-1,-1,-1,-1,-1,-1,-1],"split_conditions":[6E0,1.577E2,2.157E3,1.65E1,1.6E2,2.143E3,1E0,1.349E3,1.4794E2,7.9151E4,1.462E1,1.37E1,1E0,1.4E2,7E0,1.636E1,1.4992E2,1.595E3,1.5287E2,1.0593948E5,4.2231753E3,2.85E2,1.635E1,1.985E3,1.8908E2,4.03E4,3.0033E4,2.494E3,3.6992E4,2.755E3,3.0033E4,1E0,2E0,2E0,6E0,1.381E2,1.2094E4,7.421526E4,2E0,1E0,7.6567E4,3.27E2,1.815E1,1E1,1.577E2,1.416E1,1.86E1,2.3E4,1.1864032E5,